%YAML:1.0
---
opencv_ml_ann_mlp:
   format: 3
   layer_sizes: [ 400, 18, 10 ]
   activation_function: SIGMOID_SYM
   f_param1: 1.
   f_param2: 1.
   min_val: -9.4999999999999996e-01
   max_val: 9.4999999999999996e-01
   min_val1: -9.7999999999999998e-01
   max_val1: 9.7999999999999998e-01
   training_params:
      train_method: BACKPROP
      dw_scale: 1.0000000000000000e-03
      moment_scale: 1.0000000000000001e-01
      term_criteria:
         epsilon: 1.0000000000000000e-03
         iterations: 100
   input_scale:
      - 1.
      - 0.
      - 1.
      - 0.
      - 1.
      - 0.
      - 1.
      - 0.
      - 1.
      - 0.
      - 1.
      - 0.
      - 1.
      - 0.
      - 2.7938506249985162e+03
      - -1.8260462247539935e-02
      - 7.7606960986373736e+02
      - -1.8260462247539935e-02
      - 2.4813586681751582e+02
      - -2.3353965625021927e-02
      - 1.9208809330452871e+02
      - -3.6659952657266688e-02
      - 1.3744150501310949e+02
      - -4.3118905784860453e-02
      - 2.1156191961384195e+02
      - -2.8761361232663471e-02
      - 6.2480731779043199e+03
      - -2.4502249205525552e-02
      - 3.1042785049861988e+02
      - -1.8260462247539938e-02
      - 2.6762690410835955e+02
      - -2.2739542839862893e-02
      - 8.7307829957754018e+02
      - -1.8260462247539942e-02
      - 1.
      - 0.
      - 1.
      - 0.
      - 1.
      - 0.
      - 1.
      - 0.
      - 1.
      - 0.
      - 1.
      - 0.
      - 1.
      - 0.
      - 1.
      - 0.
      - 1.8457406621779509e+02
      - -2.2438416847683169e-02
      - 6.4644465122728548e+01
      - -3.4054536723725201e-02
      - 4.7737793804257471e+01
      - -5.3541215537413832e-02
      - 3.9948405813008470e+01
      - -7.5458104846198443e-02
      - 2.6921392788113959e+01
      - -9.1743889113209035e-02
      - 2.0362311615232567e+01
      - -1.2680530413714472e-01
      - 1.5294979011435547e+01
      - -1.5201010688275665e-01
      - 1.4875072398740279e+01
      - -1.6702860048356166e-01
      - 1.7940612734472605e+01
      - -1.4033546721776838e-01
      - 2.5476318557943134e+01
      - -9.9507508902788241e-02
      - 4.0988401279952036e+01
      - -5.3579612812165556e-02
      - 1.4656953222810949e+02
      - -3.2187820654804043e-02
      - 2.2531052806019784e+02
      - -1.8260462247539938e-02
      - 1.
      - 0.
      - 1.
      - 0.
      - 1.
      - 0.
      - 1.
      - 0.
      - 1.7327436747019167e+03
      - -2.0385220907936662e-02
      - 3.1773882786523757e+02
      - -3.7796385631327485e-02
      - 5.2794339572896718e+01
      - -4.8032499373254225e-02
      - 2.5085277057839658e+01
      - -7.7157726946104510e-02
      - 1.5593058630142304e+01
      - -1.1231079517767843e-01
      - 1.1272271234920558e+01
      - -1.6260067960025884e-01
      - 9.0434427678004710e+00
      - -2.2337895985875264e-01
      - 7.2471297016070189e+00
      - -2.7743719162678876e-01
      - 6.0756103404702229e+00
      - -3.3281639415252767e-01
      - 5.2562727378127523e+00
      - -3.6304699878123242e-01
      - 5.3118558607415691e+00
      - -3.5722059068005213e-01
      - 6.4527407565649550e+00
      - -3.0176054126032131e-01
      - 9.4556895310587450e+00
      - -2.2542859466762946e-01
      - 1.6163241974012038e+01
      - -1.4073641970638653e-01
      - 3.0605484594732822e+01
      - -1.0025797135089329e-01
      - 9.3024972408939192e+01
      - -6.3354266030562309e-02
      - 1.2596436894008832e+03
      - -2.1405710433869428e-02
      - 1.
      - 0.
      - 1.
      - 0.
      - 6.9846265624962905e+02
      - -1.8260462247539935e-02
      - 9.1558631961836213e+01
      - -3.4469134710690366e-02
      - 3.5624471971786036e+01
      - -6.7197536439558281e-02
      - 1.7223828603335885e+01
      - -1.1525331187336769e-01
      - 9.8347671535666397e+00
      - -1.8674488261423164e-01
      - 6.7199268997768353e+00
      - -2.5927499640851720e-01
      - 4.8998000299586106e+00
      - -3.5790318917593428e-01
      - 3.8561443903529375e+00
      - -4.7445196451079030e-01
      - 3.2970996541776878e+00
      - -5.9872315732099135e-01
      - 3.0036283121514069e+00
      - -7.1259416526380304e-01
      - 2.8698112808632161e+00
      - -7.5484293337478636e-01
      - 2.9597673163788540e+00
      - -7.1863154089894643e-01
      - 3.3506021512680033e+00
      - -5.9862342946697134e-01
      - 4.3015273279059638e+00
      - -4.5142423079825006e-01
      - 6.2456331293105443e+00
      - -3.0787299097773024e-01
      - 9.7901399382484033e+00
      - -2.2034854698165809e-01
      - 1.7555805933462089e+01
      - -1.3665990882846632e-01
      - 6.1860767426573922e+01
      - -6.9381099504282812e-02
      - 6.9702427173498302e+02
      - -3.4623430573780603e-02
      - 4.6564174134402592e+03
      - -1.8260462247539938e-02
      - 3.7876488260381763e+02
      - -3.0202168719334774e-02
      - 4.2954948361539508e+01
      - -5.8564724082676330e-02
      - 1.6713585539611316e+01
      - -1.0672662728354729e-01
      - 9.1808033930789517e+00
      - -1.7953572025983369e-01
      - 5.4739144592529474e+00
      - -2.8666855714017636e-01
      - 4.0373172973864992e+00
      - -4.1596508609073429e-01
      - 3.1735606397871439e+00
      - -5.7947975663706230e-01
      - 2.7199113672980944e+00
      - -7.4344603212876603e-01
      - 2.5665099296712213e+00
      - -9.3852743390724092e-01
      - 2.4936761662090738e+00
      - -1.1168214430354522e+00
      - 2.4963908737846232e+00
      - -1.1748831781447147e+00
      - 2.4981703886641458e+00
      - -1.0643055394164973e+00
      - 2.5992880373130745e+00
      - -8.6834912248036888e-01
      - 2.9900155165489593e+00
      - -6.5351580253586983e-01
      - 3.7963449234205395e+00
      - -4.6195317021375809e-01
      - 5.3934015727607294e+00
      - -3.2502825005517288e-01
      - 8.7226684995012587e+00
      - -2.1351725492782500e-01
      - 2.2153669502833409e+01
      - -1.1925335536951757e-01
      - 6.0246140049674949e+01
      - -4.9063199476340642e-02
      - 1.0583195125184416e+02
      - -2.1719761263883402e-02
      - 6.9210751162843991e+01
      - -2.7865244458378530e-02
      - 2.7959469055415315e+01
      - -8.6217505452600207e-02
      - 1.0978071472101801e+01
      - -1.6154268935797730e-01
      - 6.6349587008111310e+00
      - -2.5526812437511404e-01
      - 4.2726973924903673e+00
      - -4.0608500019120847e-01
      - 3.1623286700187170e+00
      - -5.9173166284432877e-01
      - 2.6903444968973140e+00
      - -8.0394179422888135e-01
      - 2.5887927222601914e+00
      - -1.0406879551525268e+00
      - 2.5715966598540434e+00
      - -1.2425854798261480e+00
      - 2.5468906436301428e+00
      - -1.3387356760573377e+00
      - 2.5602818417892608e+00
      - -1.3402356503973112e+00
      - 2.5431538206184445e+00
      - -1.2645791434659512e+00
      - 2.5434010335803765e+00
      - -1.0910160287301602e+00
      - 2.6641045572621915e+00
      - -8.4365753039947844e-01
      - 3.1162371684358221e+00
      - -5.8221904354994791e-01
      - 4.1812382053160162e+00
      - -4.0399508268964557e-01
      - 6.5326845178280033e+00
      - -2.6011187011699388e-01
      - 1.4352283179600967e+01
      - -1.5731228956420520e-01
      - 5.3507199219838888e+01
      - -6.7006404728380403e-02
      - 1.1744334585529602e+02
      - -2.0418256308373021e-02
      - 6.9974895869324982e+01
      - -4.3448466901361456e-02
      - 2.0016806968162971e+01
      - -1.0406123604366088e-01
      - 8.6678003155355370e+00
      - -1.8763239293761264e-01
      - 5.2966567567111476e+00
      - -3.0084319556929839e-01
      - 3.5389655301610161e+00
      - -4.8575889470612454e-01
      - 2.7790248564611697e+00
      - -6.9075662861121279e-01
      - 2.5547216548864764e+00
      - -9.3440034153364337e-01
      - 2.5049917493108698e+00
      - -1.1119544279646303e+00
      - 2.5100128585927064e+00
      - -1.1470660855277868e+00
      - 2.5484327582058754e+00
      - -1.1036846388731218e+00
      - 2.5450484335577559e+00
      - -1.0849591853426788e+00
      - 2.5103048181049026e+00
      - -1.1339621647714038e+00
      - 2.5163425617163315e+00
      - -1.1058388597879161e+00
      - 2.5425428831455448e+00
      - -8.9395147226892213e-01
      - 2.9417281427553146e+00
      - -6.2704572823527682e-01
      - 4.1384244367279894e+00
      - -4.1779154890783049e-01
      - 7.3353977259123146e+00
      - -2.5045829907755063e-01
      - 2.0286130965923231e+01
      - -1.3632811143356682e-01
      - 9.8290999336371911e+01
      - -4.5740650670702251e-02
      - 1.9956075080392827e+03
      - -1.8260462247539938e-02
      - 5.2569340216554295e+01
      - -4.7621640073359735e-02
      - 1.6537791670116523e+01
      - -1.0566892797968692e-01
      - 8.2696229870158984e+00
      - -1.9550903211201354e-01
      - 4.9430742851004936e+00
      - -3.1946476837087356e-01
      - 3.2826953319509915e+00
      - -5.2257508538538000e-01
      - 2.6993435082103039e+00
      - -7.5366732782134538e-01
      - 2.5097616565780103e+00
      - -9.7673695215197265e-01
      - 2.5407471120705152e+00
      - -1.0175941747250963e+00
      - 2.6329801810587119e+00
      - -9.1617389462536947e-01
      - 2.6823893206568239e+00
      - -8.5147807308127055e-01
      - 2.6112406886802839e+00
      - -9.0100437478413742e-01
      - 2.5641570408975856e+00
      - -1.0363016074903098e+00
      - 2.5251300287017133e+00
      - -1.0357159624008723e+00
      - 2.5705613316445213e+00
      - -8.4664885768907960e-01
      - 3.0502326662842787e+00
      - -5.7457614334602880e-01
      - 4.5904084288376046e+00
      - -3.7735559462264467e-01
      - 1.0454583638870105e+01
      - -2.0139765689987157e-01
      - 3.4098985113683817e+01
      - -7.3903426061844191e-02
      - 2.2690583133795397e+02
      - -3.6779509476940968e-02
      - 1.
      - 0.
      - 6.1319342065824777e+01
      - -4.6089704135671990e-02
      - 1.7888731994361720e+01
      - -9.9568921778189906e-02
      - 8.7644039315993396e+00
      - -1.9833904385704781e-01
      - 4.6992729580285708e+00
      - -3.4058366277503466e-01
      - 3.1151214339125977e+00
      - -5.6063230049620505e-01
      - 2.6322367199705208e+00
      - -8.0846143839534856e-01
      - 2.4745674871477061e+00
      - -9.6408830476629381e-01
      - 2.5692424854312592e+00
      - -9.1083848459586436e-01
      - 2.7271528026147691e+00
      - -8.3530377193516658e-01
      - 2.6108346649609016e+00
      - -8.3315662724830231e-01
      - 2.5861623165076142e+00
      - -9.5501400582257256e-01
      - 2.5644257769469352e+00
      - -1.0823017079372210e+00
      - 2.5152868427901129e+00
      - -9.9105594140931863e-01
      - 2.7221658844471768e+00
      - -7.7753245598292953e-01
      - 3.3540378588556639e+00
      - -5.0724892643140818e-01
      - 4.8421401236728698e+00
      - -3.3340509933862000e-01
      - 1.0278924131110371e+01
      - -1.8335451837419012e-01
      - 4.7240913924856045e+01
      - -6.8422137703004454e-02
      - 2.0640727873198588e+02
      - -2.6441718252253266e-02
      - 1.
      - 0.
      - 1.0563388469369258e+02
      - -3.0102206928560325e-02
      - 2.6319311663098322e+01
      - -8.8006278325263920e-02
      - 8.9766467334908207e+00
      - -2.0314211357272480e-01
      - 4.3345950903346484e+00
      - -3.7211225786136359e-01
      - 2.9043618993972102e+00
      - -6.0524247197627690e-01
      - 2.5657779480057146e+00
      - -8.4352720660379810e-01
      - 2.4928033320461087e+00
      - -9.4863716789659935e-01
      - 2.6060481933034416e+00
      - -9.1874274664023237e-01
      - 2.6021070956689742e+00
      - -9.3181289568225578e-01
      - 2.4179635666493913e+00
      - -1.0095583074151784e+00
      - 2.5340013187315149e+00
      - -1.1975425785543061e+00
      - 2.5065533152082544e+00
      - -1.1941089501887425e+00
      - 2.5228456745065202e+00
      - -9.7047776422526688e-01
      - 2.8131528632856622e+00
      - -7.0916093700224914e-01
      - 3.4669128792225403e+00
      - -4.8285714764381482e-01
      - 4.6733618469500104e+00
      - -3.2624343431068881e-01
      - 8.8334131720469458e+00
      - -1.9364228469571015e-01
      - 4.2451223221678013e+01
      - -6.9753189917204889e-02
      - 4.8850134855103357e+02
      - -2.5542555076560641e-02
      - 1.
      - 0.
      - 5.1597878840281146e+02
      - -1.9559981771172380e-02
      - 3.1577301286191741e+01
      - -8.3215480864734737e-02
      - 8.8123222947645239e+00
      - -2.2947749203855891e-01
      - 3.9998811614684775e+00
      - -4.0813429925622308e-01
      - 2.8306743064738487e+00
      - -6.3193974184337398e-01
      - 2.5501401731134670e+00
      - -8.4057290843685994e-01
      - 2.5265791986675263e+00
      - -9.4638395313806911e-01
      - 2.6183445124009235e+00
      - -1.0268018208774574e+00
      - 2.5223485196883133e+00
      - -1.1513812664028285e+00
      - 2.4619349859242385e+00
      - -1.2839683450299941e+00
      - 2.5959933591389412e+00
      - -1.4101538395803284e+00
      - 2.4539942363612099e+00
      - -1.2340897006065599e+00
      - 2.5448795570611820e+00
      - -9.4865795728832980e-01
      - 2.8286604692153374e+00
      - -6.8423266409501882e-01
      - 3.4430468562295400e+00
      - -4.8746794942962857e-01
      - 4.6064375294226556e+00
      - -3.3619167568472819e-01
      - 8.7978340221136193e+00
      - -2.0493779298629969e-01
      - 4.3474407555792297e+01
      - -5.6204171425486373e-02
      - 5.7004293898444257e+02
      - -3.3531939481882544e-02
      - 1.
      - 0.
      - 8.5817620977428169e+02
      - -2.1314181767184331e-02
      - 3.2927429231420170e+01
      - -9.8179700157263516e-02
      - 7.6914149344341709e+00
      - -2.7183372151010921e-01
      - 3.6701978578033967e+00
      - -4.4129693519116464e-01
      - 2.8311334602837070e+00
      - -6.3328202437075121e-01
      - 2.5892577717200864e+00
      - -8.0292717855869911e-01
      - 2.5478299921452048e+00
      - -9.0790677080495730e-01
      - 2.5586198829984026e+00
      - -1.0182070114561361e+00
      - 2.4624159281710516e+00
      - -1.1440320543485851e+00
      - 2.5045532889917843e+00
      - -1.3033368521264845e+00
      - 2.5249621409646288e+00
      - -1.3241529163137684e+00
      - 2.4534692757874943e+00
      - -1.1712959093271560e+00
      - 2.6006621111802941e+00
      - -9.3425986054441557e-01
      - 2.8146124633646141e+00
      - -6.9009885983075003e-01
      - 3.4149807541358235e+00
      - -4.9448477325531520e-01
      - 4.5650611797359923e+00
      - -3.4018360156057015e-01
      - 8.5264772005465552e+00
      - -2.0647450937073231e-01
      - 3.2995169451933279e+01
      - -7.5608543195177333e-02
      - 1.8277144879174645e+02
      - -3.0342451264527753e-02
      - 1.
      - 0.
      - 1.7647659677610625e+02
      - -1.9377823098802212e-02
      - 2.2966177730166727e+01
      - -1.1822328523348175e-01
      - 6.1361111747849755e+00
      - -3.1138560219267913e-01
      - 3.4476140361556800e+00
      - -4.7239975849140847e-01
      - 2.8575316807739259e+00
      - -6.2701718795092010e-01
      - 2.6977085812093873e+00
      - -7.3390019320363364e-01
      - 2.6605676850445437e+00
      - -8.0689283637107356e-01
      - 2.5807859262649093e+00
      - -8.6013719560350055e-01
      - 2.5232688128265153e+00
      - -9.7906792672508625e-01
      - 2.4754842663987331e+00
      - -1.1360661202600497e+00
      - 2.4788509184817631e+00
      - -1.1662815866469787e+00
      - 2.5148464670995185e+00
      - -1.0891192432713284e+00
      - 2.5962426905077400e+00
      - -8.9778415895893726e-01
      - 2.7921850297131900e+00
      - -6.8896530253192556e-01
      - 3.3721281618183330e+00
      - -4.8758330700882985e-01
      - 4.7134772268291210e+00
      - -3.3154538779274750e-01
      - 8.0964684912916560e+00
      - -2.0156503430390788e-01
      - 2.3508821033675094e+01
      - -9.7046877664147532e-02
      - 1.2264560381611179e+02
      - -4.5851822975792121e-02
      - 1.
      - 0.
      - 1.0228551919333394e+02
      - -4.5460233568079114e-02
      - 1.4726956269128088e+01
      - -1.4873264183763646e-01
      - 5.3091730361056833e+00
      - -3.3217380753132619e-01
      - 3.3112061345660888e+00
      - -4.9569407325669729e-01
      - 2.8418698654673245e+00
      - -6.3567616750414779e-01
      - 2.7400005240077707e+00
      - -7.2115026261694903e-01
      - 2.6538473292686731e+00
      - -7.6837036241032530e-01
      - 2.6097791984503851e+00
      - -8.2164040337260280e-01
      - 2.5423212733703924e+00
      - -9.5539773496586777e-01
      - 2.5096905662085134e+00
      - -1.1097228895912008e+00
      - 2.5598332729798017e+00
      - -1.1494421542738746e+00
      - 2.4910503808279731e+00
      - -1.0339031849654414e+00
      - 2.5722402244697595e+00
      - -8.6057410909704990e-01
      - 2.8743406587368834e+00
      - -6.4523127038741523e-01
      - 3.5363195726909820e+00
      - -4.4806326821364223e-01
      - 5.2598032335441784e+00
      - -3.0602430555087806e-01
      - 1.0432750837149584e+01
      - -1.8432557895858787e-01
      - 3.4567919125552564e+01
      - -8.2059274209919417e-02
      - 1.0114376059146983e+02
      - -3.1731377873991606e-02
      - 1.
      - 0.
      - 5.1477063438635916e+01
      - -4.8852745558416177e-02
      - 1.2227825371288258e+01
      - -1.5181685143473106e-01
      - 5.1299232807812478e+00
      - -3.2116674165211440e-01
      - 3.2813742321380275e+00
      - -5.0806399006684710e-01
      - 2.7110630740799229e+00
      - -6.6985941756687739e-01
      - 2.6077903074897857e+00
      - -7.9056956454967298e-01
      - 2.5184911645619930e+00
      - -8.7979295702936533e-01
      - 2.5060511130426764e+00
      - -9.8129103875698576e-01
      - 2.4987136024151728e+00
      - -1.1248719212871094e+00
      - 2.5248952610951378e+00
      - -1.2280860082142580e+00
      - 2.5365204445987128e+00
      - -1.1731689432080130e+00
      - 2.4993986834110076e+00
      - -9.8614188286069915e-01
      - 2.6750500621834772e+00
      - -7.7631355068852825e-01
      - 3.0642222847718177e+00
      - -5.5705961645876945e-01
      - 4.1346361464714745e+00
      - -3.9012050471118881e-01
      - 6.4258127699193786e+00
      - -2.5314343631462094e-01
      - 1.3119222392705716e+01
      - -1.5000502563994514e-01
      - 4.8440657227703966e+01
      - -6.5664005474496981e-02
      - 2.7983262423000053e+02
      - -3.3653075753816479e-02
      - 1.
      - 0.
      - 9.3129836341997049e+01
      - -4.1756255382173854e-02
      - 1.8609492806517956e+01
      - -1.2301726849483204e-01
      - 6.5196951798081972e+00
      - -2.7724472653407284e-01
      - 3.6354393601935064e+00
      - -4.5030977807927586e-01
      - 2.7704476170280552e+00
      - -6.4935673812926320e-01
      - 2.5306825851712462e+00
      - -8.3432804377430358e-01
      - 2.4640186729888582e+00
      - -1.0201778602498357e+00
      - 2.5305511540617367e+00
      - -1.2016281354763017e+00
      - 2.5562087633208970e+00
      - -1.3083646063240251e+00
      - 2.5112712940043052e+00
      - -1.2408306902067368e+00
      - 2.5379692568981693e+00
      - -1.0662125449336211e+00
      - 2.6300794030275969e+00
      - -8.1470581161127764e-01
      - 3.0203938068357377e+00
      - -5.9831437884552552e-01
      - 3.8997030046216485e+00
      - -4.2944653164784879e-01
      - 5.4979984422619284e+00
      - -2.8578812971387041e-01
      - 8.9698167276668777e+00
      - -1.8535277112654122e-01
      - 1.5327443097380414e+01
      - -1.0681124704321154e-01
      - 4.0737619804293047e+01
      - -5.3571303949111151e-02
      - 1.8193899740566630e+02
      - -2.5447678181543205e-02
      - 1.
      - 0.
      - 1.6241488120953543e+03
      - -2.5476845617974336e-02
      - 4.2017761017655019e+01
      - -7.3489891989304335e-02
      - 1.1635946417983099e+01
      - -1.8926286113810736e-01
      - 5.4228934156131618e+00
      - -3.3517736289002942e-01
      - 3.5352596795500131e+00
      - -5.1593536110212346e-01
      - 2.8320304746701535e+00
      - -7.1161340024461994e-01
      - 2.5361449670470746e+00
      - -9.1841935695633115e-01
      - 2.4851755510345379e+00
      - -1.0584736742407981e+00
      - 2.5225656420045945e+00
      - -1.0961520965032778e+00
      - 2.5604201069509416e+00
      - -9.7466663203490200e-01
      - 2.7623817231646224e+00
      - -7.8231376183847801e-01
      - 3.2300800508427669e+00
      - -5.8626167098613768e-01
      - 4.1797050486923339e+00
      - -4.2301349041768743e-01
      - 5.7958694577257495e+00
      - -2.9630910518376319e-01
      - 8.3114094375060379e+00
      - -1.9535615837162651e-01
      - 1.4231428306177826e+01
      - -1.3038965559294660e-01
      - 4.0650870959337013e+01
      - -8.6296756091138405e-02
      - 1.2595403289382583e+02
      - -4.8241220895302070e-02
      - 5.4800999185186276e+02
      - -2.5788706683779632e-02
      - 1.
      - 0.
      - 1.
      - 0.
      - 1.0119627998613004e+02
      - -4.5240692912918455e-02
      - 2.1203603906130351e+01
      - -1.0008655942635701e-01
      - 1.0321520765444504e+01
      - -1.8460007182313976e-01
      - 6.1400856749063921e+00
      - -3.0991783237900450e-01
      - 4.2630466369875526e+00
      - -4.4392528154305849e-01
      - 3.4358653024145407e+00
      - -5.7285983387884376e-01
      - 3.3288970941590428e+00
      - -6.5125850028925691e-01
      - 3.2461005397893445e+00
      - -6.4180291017575175e-01
      - 3.4819219264562591e+00
      - -5.8458968928969968e-01
      - 4.0314294909639345e+00
      - -4.7107124282282414e-01
      - 5.2264685564583173e+00
      - -3.5803702818921984e-01
      - 7.0717237454906616e+00
      - -2.5400893562625099e-01
      - 9.0614442757103824e+00
      - -1.7916786153585262e-01
      - 1.2846196434596573e+01
      - -1.2083821523306243e-01
      - 2.3989932086834248e+01
      - -8.7461338722350387e-02
      - 1.2733732146056201e+02
      - -4.6773580323581830e-02
      - 1.5521392197274747e+03
      - -1.8260462247539935e-02
      - 3.4923131983101607e+03
      - -1.8260462247539942e-02
      - 1.
      - 0.
      - 1.
      - 0.
      - 4.0723813387844802e+02
      - -2.5019861001311424e-02
      - 4.3033318547568186e+01
      - -5.4452619788148256e-02
      - 1.9660995406287302e+01
      - -1.0277689529581335e-01
      - 1.0660867169237946e+01
      - -1.6470692315803898e-01
      - 7.3714985191910749e+00
      - -2.3623485985127154e-01
      - 5.9264368876145834e+00
      - -2.7118292095172675e-01
      - 6.5106655949720933e+00
      - -2.8864803324949578e-01
      - 6.1744485079086617e+00
      - -2.7756770575046175e-01
      - 6.6382906880768067e+00
      - -2.6957535885572226e-01
      - 7.6118730866731950e+00
      - -2.3597802850832270e-01
      - 1.0143578632930671e+01
      - -1.8452032456135367e-01
      - 1.7711366291782511e+01
      - -1.4148256938104009e-01
      - 1.8392684384040965e+01
      - -9.5473665336174018e-02
      - 2.3615852314352630e+01
      - -6.8254446339983732e-02
      - 4.6235064017221042e+01
      - -4.9498718184909515e-02
      - 2.8897048504739877e+02
      - -3.5129747453156113e-02
      - 1.
      - 0.
      - 1.
      - 0.
      - 1.
      - 0.
      - 1.
      - 0.
      - 6.2917161037063079e+02
      - -2.0561164465267200e-02
      - 1.3461569870315842e+02
      - -4.1000600665221425e-02
      - 5.2959045955162033e+01
      - -6.3689313211431828e-02
      - 2.8894610580093179e+01
      - -9.3482569120606346e-02
      - 2.4364625400922581e+01
      - -1.3532718838222590e-01
      - 1.9765904232721525e+01
      - -1.5414822460273589e-01
      - 2.1247097099459793e+01
      - -1.5278469004542253e-01
      - 1.6406637689890538e+01
      - -1.3181072029049531e-01
      - 2.0629995035224244e+01
      - -1.4200988320275443e-01
      - 2.2279898122335997e+01
      - -1.1512737590950023e-01
      - 3.5567693945461578e+01
      - -1.0154228525131095e-01
      - 6.0707484418937469e+01
      - -5.6025471953267368e-02
      - 9.6117161329337549e+01
      - -5.1765062257508501e-02
      - 8.1979686154421657e+01
      - -4.0186122976873899e-02
      - 1.4490877294736597e+02
      - -3.1254835296661905e-02
      - 4.4179074065130308e+03
      - -2.3100171497689795e-02
      - 1.
      - 0.
      - 1.
      - 0.
   output_scale:
      - 1.
      - 7.0064923216240854e-46
      - 1.
      - 7.0064923216240854e-46
      - 1.
      - 7.0064923216240854e-46
      - 1.
      - 7.0064923216240854e-46
      - 1.
      - 7.0064923216240854e-46
      - 1.
      - 7.0064923216240854e-46
      - 1.
      - 7.0064923216240854e-46
      - 1.
      - 7.0064923216240854e-46
      - 1.
      - 7.0064923216240854e-46
      - 1.
      - 7.0064923216240854e-46
   inv_output_scale:
      - 1.
      - -7.0064923216240854e-46
      - 1.
      - -7.0064923216240854e-46
      - 1.
      - -7.0064923216240854e-46
      - 1.
      - -7.0064923216240854e-46
      - 1.
      - -7.0064923216240854e-46
      - 1.
      - -7.0064923216240854e-46
      - 1.
      - -7.0064923216240854e-46
      - 1.
      - -7.0064923216240854e-46
      - 1.
      - -7.0064923216240854e-46
      - 1.
      - -7.0064923216240854e-46
   weights:
      -
         - -4.7504818525171463e-03
         - 4.6364992922844645e-03
         - 2.7542537410404945e-03
         - -1.9516291138343847e-03
         - -3.6447626367252755e-03
         - -4.9141218502341292e-03
         - 2.7901884809901595e-03
         - 3.6696261353952892e-03
         - 3.8670733869841385e-04
         - -8.7501657260362559e-04
         - -5.7527328748933741e-04
         - -8.0093027910168484e-04
         - 4.4848168217932419e-03
         - -2.9119623136009704e-03
         - 1.3648782418380812e-03
         - 2.9805089319823105e-03
         - -3.8858060858721383e-03
         - 4.4696300174219749e-03
         - 1.0145719327966148e-03
         - 4.0674729190456121e-03
         - -4.0474313795193210e-04
         - 4.3705278290597522e-03
         - 3.4428752715829052e-03
         - -4.4221628059526426e-03
         - -3.5469276986393335e-03
         - -3.5018149593240033e-03
         - 2.8305782888635857e-03
         - 3.3338164125347935e-03
         - -1.6331214878263802e-03
         - -9.6830105551926060e-04
         - -3.3215140043306064e-03
         - -2.0590218116450429e-05
         - 7.7519062752116473e-04
         - 2.5080184387206992e-04
         - 4.5473010003480559e-03
         - 2.6758887981851685e-03
         - -2.5130204740628553e-03
         - -3.8897047825695165e-03
         - 1.7735442505538697e-03
         - 5.9612396970038146e-04
         - -2.5754553218222515e-03
         - -3.5800148330968258e-03
         - 2.9256345466057913e-03
         - 3.1249602921937913e-03
         - 2.0646863434494104e-03
         - -2.5134460523329864e-03
         - 3.7820964793552113e-03
         - 3.2603114774870799e-03
         - -3.7197399027292201e-03
         - -1.7480010768431129e-03
         - -4.6727275343295387e-03
         - -1.5773279318605994e-03
         - -3.3756221916730893e-03
         - -3.9752044895567217e-04
         - -4.8353141138720414e-03
         - -1.8969633208577425e-03
         - -1.9598700914506750e-03
         - 7.0955775719856653e-04
         - 1.8904213613086234e-03
         - -4.1499321964780901e-03
         - 1.0840827993604456e-04
         - -4.9273361370407286e-03
         - -4.6820210281002684e-03
         - 1.2793129567115452e-03
         - -1.3795388054083982e-03
         - -1.1238117597587827e-03
         - 1.3485292774794327e-03
         - 2.5581426545368624e-03
         - -1.2590022168012978e-03
         - -3.7828913789856784e-03
         - 1.8534278936847262e-03
         - -1.7716481739429167e-03
         - -4.3499327389579139e-03
         - 1.1061682141067640e-03
         - 4.1934673300703948e-03
         - 2.9805720770430810e-03
         - 3.5845322366947212e-03
         - -4.8151827733576517e-03
         - -3.7270827657324515e-03
         - -4.9446468866678576e-03
         - -4.2175943607738768e-03
         - 1.3309724583871374e-03
         - -5.3517329284615987e-04
         - 3.2454803801186248e-03
         - -1.9332535557291025e-03
         - -2.5571150771518309e-03
         - -3.8443555064699123e-03
         - -8.8689302336763566e-04
         - 3.2381555405578437e-03
         - -1.0627767905279082e-03
         - -3.2274290656704317e-03
         - -3.1680589378867341e-03
         - -2.2088958644158395e-03
         - -4.2765389849418704e-04
         - 4.8725033043956270e-03
         - -1.9840365088867776e-03
         - -2.9412157394814609e-03
         - -7.5282876402337168e-04
         - 4.7619627940852114e-03
         - 2.0338451244550672e-03
         - -2.6461633433062905e-03
         - 2.8753380196897388e-03
         - 2.3509320737951480e-03
         - -2.6821092599236414e-03
         - 1.9534439289932391e-03
         - 4.2286471868408348e-03
         - -7.8313693465835828e-05
         - -4.2822254891386503e-03
         - 3.8232354738360111e-03
         - 8.2829376943518442e-04
         - -1.2885251859888842e-03
         - -4.6297774109361270e-03
         - -9.8097927002343643e-04
         - 3.6985963019017004e-03
         - 1.6632647561260106e-03
         - -2.2396802152562945e-03
         - -2.6957046974012667e-03
         - -8.6502370751743074e-05
         - 4.6169440762029871e-03
         - -3.9907323842842887e-03
         - 1.1477960102043061e-03
         - 1.8630594447985134e-03
         - 7.7558460945195749e-04
         - 2.5514324688523885e-03
         - 4.5799092271642831e-03
         - -5.9330291375876254e-04
         - 3.0537737032408159e-03
         - 7.1134712334222300e-03
         - 1.2955938691281885e-03
         - -4.1637154860133165e-03
         - -1.4903420502253302e-02
         - 7.6778416105323906e-03
         - -7.0087446867321372e-04
         - -1.0595788633083240e-03
         - -1.5787800648898564e-03
         - 4.5598290034913700e-03
         - -6.3310362016656624e-03
         - 1.6236481996274141e-03
         - -6.4318096639527547e-04
         - 2.8258686755780371e-03
         - -4.1667954212036727e-03
         - -7.4269971936171612e-04
         - 7.1224583749907651e-04
         - -1.5533280129984083e-02
         - 2.7195177964465353e-03
         - 7.1485494621659684e-03
         - 4.1484949776596763e-03
         - -9.6062725699623801e-03
         - -1.0598318768039900e-02
         - 9.0003467087315624e-03
         - -6.3520376332875505e-03
         - -3.3013216825255698e-03
         - -6.5237708508326482e-03
         - 4.4624229238777909e-03
         - -1.0131996532234172e-02
         - 6.8245814035171825e-04
         - -4.3838708542472699e-03
         - 1.2992590085429381e-03
         - -5.7666840650794351e-03
         - -1.3773470929623797e-03
         - -5.7396509548231544e-03
         - -1.3632990122106066e-02
         - -3.3952265816889070e-03
         - -1.9859568971586499e-04
         - -1.1583675444966522e-03
         - -1.2768505197323784e-03
         - -1.9331321734788373e-05
         - -1.3397395271541252e-03
         - -9.9319461371632925e-04
         - -1.3230208890582294e-04
         - 2.1251635710296890e-03
         - -4.6785925327433160e-05
         - 1.0519592602289552e-03
         - -1.3333215376798001e-03
         - -4.4582890116266517e-03
         - -2.1298611687401987e-03
         - -1.3599376802222308e-03
         - -9.3459486196357101e-04
         - -2.4325912145837023e-04
         - 2.1934295472855448e-03
         - 2.4530486073724199e-03
         - 1.4235745212816923e-04
         - -1.8028423915913655e-03
         - -1.4606914306981070e-03
         - 2.1659784485368928e-03
         - 5.3767636076008560e-04
         - 1.7652048991214967e-03
         - 3.9062635374363022e-03
         - -2.4126469679545248e-03
         - -2.4699452854631517e-03
         - 1.7076649284928037e-03
         - 3.0806743798533478e-03
         - -2.1350457248019684e-03
         - -6.8180735219132058e-04
         - 1.9707014401563580e-03
         - -8.1714265264911528e-04
         - -2.2798210935308385e-03
         - -2.3696951313591542e-03
         - -3.2194767447989345e-03
         - 1.5711423458149446e-03
         - 2.5011113644802119e-03
         - -4.1062679574958676e-03
         - 5.3312026731531974e-03
         - -3.5248933132186007e-03
         - -4.4445238055941424e-04
         - -5.6902992631849836e-03
         - 7.8494497482489035e-03
         - -2.2993782746120739e-03
         - -3.5910436031528175e-03
         - 3.4457374888164894e-03
         - 9.1509509157861252e-04
         - -4.3888769097204482e-03
         - 1.9550564107623006e-04
         - 2.3249207840870421e-03
         - 2.7210211474828880e-03
         - 1.1945710834201742e-03
         - -6.3364677970842824e-03
         - -4.7101906368705940e-03
         - 8.8768468502816132e-03
         - -1.3380075618019114e-03
         - 7.8679460687244487e-03
         - 1.6290156273891577e-07
         - 6.5834981532717149e-03
         - -8.5313404529701597e-03
         - 4.8919544161733157e-04
         - 3.3313032994556030e-03
         - -3.1456546306170329e-03
         - 8.8937636004588674e-03
         - 7.8693523737142657e-03
         - -4.9230774090702604e-04
         - 6.6734372230599804e-04
         - 4.4107459644830470e-03
         - -5.9680471615124499e-03
         - 2.0841201039584938e-03
         - -5.3339033776804736e-05
         - -2.6281823315208843e-03
         - 3.1329556608206961e-03
         - 6.8072666784764295e-04
         - 3.3501428678821992e-03
         - 3.2241162586248715e-04
         - -2.0041050723124186e-03
         - 3.2225612609312858e-03
         - 6.8508348092627342e-03
         - 2.1252557498441338e-03
         - -2.3188699850281353e-03
         - 1.2375044816615504e-03
         - 4.7570891622251820e-03
         - -9.6999335631026812e-04
         - -4.6551655401207391e-03
         - 1.3128193829992931e-03
         - -6.8884290716405107e-04
         - 1.0447841351842514e-03
         - 3.2368218421491820e-03
         - 7.4062558829053682e-03
         - -6.4937584305546324e-03
         - 1.3963635699403775e-03
         - -1.0801179041679140e-02
         - 2.0021887246676755e-03
         - -6.8444271156063350e-04
         - 2.6188233435992204e-03
         - -1.1139268052659048e-02
         - -8.4277560979101069e-04
         - -2.0603976298049897e-03
         - -5.3456507189631733e-03
         - -8.1944414590423426e-03
         - 5.1550908669801415e-03
         - 2.5175415985125411e-03
         - 3.9279014510873542e-04
         - 1.4825347314133116e-03
         - -7.4352085460543749e-03
         - -9.0639232663206875e-03
         - 1.0847145304999807e-02
         - 6.9904710321332508e-03
         - 8.7855923083043105e-04
         - -5.6635844097111280e-04
         - 6.3702786286625856e-03
         - 5.1666245913329625e-04
         - -2.2253705370921641e-03
         - -3.6639490044715692e-04
         - -4.7318230589212720e-03
         - 2.1887799850788614e-03
         - 5.6119394028005696e-03
         - -1.3968110075158154e-04
         - 3.0318406136271513e-03
         - 2.3333629322095061e-03
         - 7.6188780072911674e-04
         - 3.5792437415116630e-03
         - 7.9149946771954883e-04
         - -1.0251101818095123e-02
         - -2.5623148429416783e-05
         - 2.2667824352637705e-03
         - 8.7689457135584721e-04
         - 4.4446505371097218e-03
         - 1.9654946298324717e-03
         - 1.9467562818850331e-03
         - -5.5358461571676917e-03
         - 3.3692825265201928e-03
         - -1.1686914411190553e-02
         - 1.2232054413360109e-03
         - 2.7361048433968355e-03
         - -6.8020244806610264e-04
         - 6.7620244574808615e-03
         - 5.3420696384195712e-03
         - 2.0830850547847325e-03
         - 3.0619859196128686e-03
         - -1.8379303270588206e-03
         - -1.4818635714530489e-04
         - 6.2526152833968450e-04
         - -4.7972549119858574e-03
         - -1.4732929309724709e-03
         - -3.8867446734852612e-03
         - 1.6158868005758157e-03
         - -2.1022927471628103e-03
         - 8.7058962063532043e-04
         - 6.2932835815376073e-04
         - -2.8648360691390126e-03
         - 4.8673211563764879e-04
         - -2.1636562547402986e-03
         - -1.0247747392771167e-03
         - 3.4372889772193581e-03
         - 2.6485473326849754e-04
         - 4.8877495667687728e-03
         - 2.5301077874818616e-03
         - -6.1445362766044819e-04
         - -2.2409841790414571e-03
         - -2.3302960575548254e-03
         - -4.0474248572151409e-03
         - -2.0788712409186600e-03
         - 4.3060783578231206e-03
         - 3.5255533263474402e-03
         - -4.6292028169992831e-03
         - -4.2542684890665211e-03
         - -8.6784092484434817e-04
         - -7.9626796465285176e-04
         - 1.4412949687201077e-03
         - -2.5288055660672450e-03
         - -3.3194371346699572e-03
         - 2.7780722763338147e-03
         - -3.7035223072897938e-03
         - -4.2034104067982404e-03
         - 4.9727956004222353e-04
         - 4.6760708182638465e-03
         - -1.6139016085264550e-03
         - -3.3688700422081848e-03
         - 1.9918617746862025e-03
         - 9.2810587554388840e-04
         - -3.6648004940218258e-03
         - 2.9990523591980427e-03
         - -3.9703710531116976e-03
         - 3.1653071584000097e-03
         - 4.4616728390652781e-03
         - 4.1898000223934201e-03
         - -4.6748275274790868e-03
         - -3.3295229315042897e-04
         - -1.7607623686087272e-03
         - 3.8595164073939796e-03
         - -3.9699658042651352e-03
         - -2.4061874510806032e-03
         - 4.0289589917295822e-03
         - -4.0233343282499003e-03
         - 2.9615707661703535e-03
         - -3.6566049012702073e-03
         - -3.8381947121387955e-03
         - -4.3082594832599226e-03
         - -2.0085836418033314e-03
         - 3.3117392954124395e-03
         - 2.5726911805359983e-03
         - -9.9232909144787479e-04
         - -1.6845079055268421e-03
         - -2.2486929463474848e-03
         - -2.5753993392517538e-03
         - -7.0776177382412154e-04
         - 2.5531891817662847e-03
         - 1.3835387293439705e-03
         - -2.0548376103024378e-03
         - 3.8743655021013213e-03
         - 4.2927526770956638e-03
         - -1.0243705840712489e-04
         - -3.0296866644981988e-03
         - 4.5783009933838973e-03
         - 1.6687647266437425e-03
         - -3.5618372575787478e-03
         - -5.7883600588333299e-04
         - -2.1665587019689308e-03
         - -3.0747777705482935e-03
         - 6.8750635105793169e-04
         - 4.6715044377309695e-03
         - 3.6588993447744414e-03
         - -4.8910918862792229e-03
         - 3.4523804531704514e-03
         - -3.1420014166799748e-04
         - 3.0449467023320716e-03
         - -5.9672884371218381e-04
         - -4.5397707870133471e-03
         - 2.7032714736442516e-03
         - 1.9878899606679151e-03
         - -1.4359639168052651e-03
         - 1.0433925077798520e-03
         - 3.2946026150856055e-03
         - 3.3847136318871443e-03
         - 1.8945860135321272e-03
         - -3.2863354148585655e-03
         - 2.5747904694857938e-04
         - -4.9773438858857653e-03
         - 2.7513385985272389e-03
         - -7.1032228156023389e-04
         - 8.2858901021329518e-04
         - -4.9567976700477601e-03
         - -3.7025947344743789e-03
         - -4.6862842314325274e-03
         - -1.4469226492215285e-04
         - -2.5489656330680548e-03
         - -4.0153774119954626e-03
         - -2.4982551576814007e-04
         - -3.8268741037437584e-03
         - -9.6902095306426121e-04
         - -4.1346181776427283e-03
         - 3.0546536520525205e-03
         - 3.7537913147194860e-03
         - 6.1885596771701814e-04
         - 2.2847702357960283e-03
         - 1.6132130673269574e-03
         - -4.7598478637807494e-03
         - 2.0898309984043345e-03
         - -3.1123195115380690e-03
         - 3.1600236046728167e-03
         - -1.8337623272971131e-03
         - 2.4994016390414930e-03
         - -2.6833589861115031e-03
         - 1.5483126784599272e-03
         - -1.0428817064233838e-03
         - -2.2519554065730234e-03
         - 3.4116571160725992e-03
         - -1.6273158017985269e-03
         - 2.7114428103158605e-03
         - 2.4322354157728958e-03
         - -2.2827358886632040e-04
         - 4.3073378886112328e-03
         - -4.2414561619873933e-03
         - -2.9565603771697776e-03
         - -1.9817366557484777e-03
         - 1.7695849565905130e-03
         - 9.4865502391505642e-04
         - -4.6766667058572783e-03
         - -1.1657637066550851e-03
         - 4.1613549597169178e-03
         - 3.2026931525798506e-04
         - 1.0741457374858017e-03
         - -6.8554446274363449e-04
         - -2.8550149795178404e-03
         - -3.0244068469303278e-03
         - 3.3076319706729983e-03
         - -3.6293241978648894e-04
         - -2.4226701683515507e-04
         - -1.0699182853636335e-02
         - 3.4660531261513222e-03
         - 1.4186325188733867e-03
         - 7.0391937236566381e-03
         - 5.3215686051329295e-03
         - -1.7564348511451883e-03
         - -2.1831157919561662e-03
         - 3.2374945011047758e-03
         - 1.8639551905320210e-03
         - 3.0146236211145623e-03
         - 2.0412715042773802e-03
         - 7.7295054676299079e-04
         - -8.8656033461408253e-04
         - -6.0788588406357419e-03
         - -2.7381094203187155e-03
         - 2.2714050832454256e-04
         - -1.3646667524203596e-03
         - -2.5805300070407874e-03
         - -1.0747897134318209e-02
         - -2.1061216445080896e-03
         - 3.5608364831763713e-03
         - 2.7032131403099007e-03
         - -2.5941438734769879e-03
         - 2.1362952661569397e-03
         - -2.6931377342235708e-03
         - 2.0665800917964413e-03
         - -4.0644875294389201e-03
         - -2.7563386135079269e-03
         - -6.4214320413695149e-03
         - 6.5647704362669012e-03
         - 1.3078541284377793e-03
         - -7.2160533640558246e-03
         - -4.3685459109468576e-03
         - -4.6078314634479586e-03
         - 3.5649634739531384e-03
         - -2.3082974976181836e-03
         - -3.5959188421165475e-03
         - 6.2758345689237812e-04
         - -2.5135233431025287e-03
         - -3.9071849540320749e-03
         - -2.5191703408529264e-03
         - -2.8100420334048352e-05
         - -4.0435945294084131e-03
         - -3.4555658787925581e-03
         - -2.5034722821734691e-03
         - -1.0735302379036790e-03
         - 6.3408255564456487e-04
         - -1.4341035590510328e-03
         - 3.0105881496340545e-03
         - -5.1406746664173202e-03
         - 3.9808191460797525e-03
         - 2.8427127235880917e-04
         - 1.5291602129508639e-03
         - 2.6693518658757751e-03
         - -3.1079055008927559e-03
         - -1.7756728562326825e-03
         - -3.8013584611818955e-03
         - 3.9502738147797730e-03
         - -9.0340149090495652e-04
         - -1.7832873978174432e-03
         - -2.2783315209459146e-03
         - 3.6414723931265706e-03
         - 6.9311304016597241e-04
         - -6.1315980791042633e-04
         - 5.0006577666637537e-04
         - -2.2954517827332159e-03
         - 3.7398758911788869e-04
         - -3.8425046196356254e-03
         - -1.6599757773024684e-03
         - 4.1858131450188358e-04
         - 1.2843093648339764e-03
         - 1.6162337558060589e-03
         - -9.0225001548600305e-04
         - -3.8788141443299108e-03
         - -2.4743276762505973e-03
         - -1.5469418359324977e-03
         - 1.0674885156924207e-03
         - -6.2753718728311974e-05
         - 1.4380944581710681e-03
         - 1.1521166341121969e-03
         - -4.0803965515110478e-03
         - -1.1057278519908652e-03
         - 3.6172502689177767e-03
         - 1.8022099163960230e-03
         - -5.7684156083987045e-04
         - 1.0947725504597175e-03
         - -1.3626358330235616e-05
         - 3.7878462379511962e-03
         - -1.2524384491592404e-03
         - -1.3047576165220088e-04
         - -2.0129277170146420e-03
         - 4.6719480347768017e-03
         - 4.4301205562700622e-03
         - -1.4423576420655735e-03
         - 2.4044070451279924e-03
         - 3.6471091983792288e-03
         - -2.4430497008397145e-03
         - -5.5398225784917036e-04
         - 2.0783427573028614e-03
         - 3.5365171491542712e-04
         - -2.4401502834492462e-03
         - -2.1084268463977133e-03
         - 2.8827243239134691e-03
         - 6.5999127340254829e-04
         - 3.7171985247880679e-04
         - -1.8001209400449073e-03
         - -3.3448780419989853e-04
         - 1.1230956403771131e-03
         - -1.7205714962906677e-04
         - -4.4908599572575895e-04
         - -1.7001142464882508e-03
         - 2.1478615817795014e-03
         - 2.7457492017077274e-03
         - -1.8462159931948085e-03
         - 3.5807234070615460e-03
         - 2.9666848677121641e-03
         - -7.2485882163529419e-04
         - -2.8639436709749786e-03
         - 1.6205059003499040e-03
         - -1.3901824403905268e-03
         - -4.2574253834917830e-03
         - 3.2423924915119312e-03
         - -4.8127063602220084e-04
         - -2.4676353808209383e-03
         - -2.5016410614133063e-04
         - -2.7030661304741897e-03
         - 2.1294988434767408e-03
         - 3.3284285759854898e-03
         - 5.2302101383421625e-04
         - -1.5313321340195483e-03
         - -3.7174188566724263e-03
         - -2.1587411029595029e-03
         - 6.6811782501622068e-04
         - 8.6743845802005450e-04
         - 3.6089117843022813e-03
         - -4.4129119158814734e-03
         - 3.5671945209749635e-04
         - 2.6254157098228011e-03
         - -2.5777587709279099e-03
         - -2.3416393431608738e-03
         - -1.3840171309046650e-04
         - 1.4637946480528410e-03
         - -1.8104513856088069e-04
         - -3.1103525068537589e-03
         - -8.6271376531779393e-04
         - -4.2396710580813951e-03
         - -2.1280893627625345e-03
         - -6.8382720567333277e-04
         - 8.9181777068070246e-04
         - -1.6403120525018008e-03
         - -1.9593375871223054e-04
         - 3.4267675176711316e-05
         - -2.1402451594951842e-03
         - 7.1649453162731978e-04
         - -3.2249392745983077e-03
         - 3.4472408550043823e-03
         - -2.8115959750797436e-03
         - 1.8502081879972604e-03
         - 5.9269894921588039e-04
         - 4.9515182239480851e-03
         - -9.4870100996807566e-04
         - 2.4944728219011198e-03
         - -1.9816740581184490e-03
         - -2.7832322342398394e-03
         - -4.6383474488325130e-03
         - -2.9509798187660830e-03
         - -3.4783883537926603e-03
         - -1.2771286974147303e-04
         - 1.1679009991821677e-03
         - 2.3866907415647817e-03
         - -1.0452295282384198e-03
         - -1.1394369061175082e-03
         - 4.1475996489055674e-03
         - 2.0921765450426719e-03
         - 3.3721238765327811e-03
         - 8.9104526071825344e-04
         - -1.6920363128849746e-04
         - 1.2892007962437037e-02
         - -2.2431973399132054e-03
         - 6.2423684384622967e-03
         - 4.7012501907583152e-04
         - 4.6111184243666347e-03
         - -1.3798222269008785e-03
         - 2.1639476337748991e-03
         - 3.6348042031142504e-03
         - -2.8098374353524554e-03
         - -5.9834774828404170e-03
         - 2.1122390023347848e-03
         - 8.0164700806110631e-04
         - 5.6159531270819872e-03
         - -9.2963609216253863e-04
         - 3.1057182543613934e-03
         - -1.9493225639167742e-03
         - 5.4313333758531637e-04
         - -1.1030876747879021e-02
         - -1.9390720233589285e-03
         - 3.4098892778481986e-03
         - 1.3841249670857027e-04
         - 1.8713781363068009e-04
         - -8.8424103841682009e-04
         - -2.1660014379440216e-03
         - -9.3555849998809091e-03
         - -9.2941543577563252e-03
         - -5.9066277240722477e-03
         - 1.5950506417780140e-03
         - 5.9590967598482343e-03
         - -8.9467866589655360e-04
         - 5.1148579489730742e-03
         - 6.8305031655739312e-03
         - -5.9663242634259324e-03
         - 1.8692729092803365e-03
         - 4.6885209275259127e-03
         - -7.4578927905046876e-03
         - -2.8238672462200260e-03
         - 2.3961093502274586e-03
         - -2.4686757570634467e-03
         - 2.4417662628635831e-03
         - -7.7894374058329911e-03
         - -1.9667405715398838e-03
         - -5.9556933018017049e-03
         - -5.6826591021201488e-03
         - -1.4925364981393586e-03
         - 1.0503707436098310e-02
         - 4.3101927209865153e-03
         - -2.3328249128924945e-03
         - 5.1766166363928960e-03
         - 6.1698621147250349e-03
         - -7.6817073251586217e-03
         - -5.2857518809940626e-04
         - 9.0339069715816844e-03
         - 1.9085410211690428e-03
         - -8.7834964417990186e-04
         - -4.3456275637526994e-03
         - 2.1696929688420907e-03
         - 4.3200885706932467e-03
         - -1.9485658601121254e-03
         - 5.7234565443747723e-04
         - 4.6804430667985028e-04
         - 4.8280725256800291e-03
         - 4.9680485761329296e-03
         - 2.7584838019965988e-03
         - 4.6347704861294066e-03
         - -2.2675265625782520e-03
         - 1.2532741872747595e-03
         - 5.1545841985389481e-04
         - 3.2358006550364219e-04
         - 1.4528618684430648e-03
         - -8.8513386816829338e-05
         - 3.4143801596148607e-03
         - -3.8157818821027835e-03
         - -2.7229912317643366e-03
         - 3.1926969230388043e-03
         - -1.8672070896532634e-03
         - 4.9764360251570968e-03
         - 1.8729829831427300e-03
         - -3.0273727523985588e-03
         - 1.8136354844609671e-03
         - 2.9471277428899105e-03
         - 2.6186765537240951e-03
         - 2.5139603536731580e-03
         - 1.5273113575675604e-03
         - 2.4196214887583422e-03
         - 3.2889477890333295e-03
         - -6.6237484758972039e-04
         - -1.1675650645620443e-03
         - -3.5936538219530655e-03
         - -4.8920617620104639e-03
         - -5.0412129962059404e-03
         - -9.7252545815499020e-04
         - 3.7264030675628746e-04
         - 4.5910718837440000e-04
         - 3.3005832853600543e-03
         - -4.8085818574112879e-03
         - 4.5477830751522328e-04
         - -2.7864944844334244e-03
         - -4.8614441930389194e-04
         - -3.8878398868949092e-03
         - -2.0868713563453566e-03
         - -2.7410677951525664e-03
         - -9.5557207020792369e-04
         - 2.7564749034360665e-03
         - 1.6199138142022106e-03
         - -1.6291393405386599e-03
         - -3.5149489958563986e-03
         - -3.7264723938054294e-03
         - 1.5353605980210293e-03
         - -1.4393937118667899e-03
         - -2.7546972362279183e-03
         - -1.5309807612830968e-03
         - -3.3777492036051499e-03
         - -9.7834838400217509e-04
         - -3.3519446679135248e-03
         - -6.8620175848912448e-04
         - -2.9503891566218261e-03
         - -4.0839125434393338e-03
         - 4.1986388616623901e-03
         - -5.1560413835970518e-05
         - -3.8999345175810872e-03
         - -1.4205957980487351e-03
         - 3.6773128880973993e-03
         - 1.5035995975350362e-03
         - -5.9187033650382782e-04
         - -1.1807177344656562e-02
         - -3.7193835687313629e-03
         - 4.2737419085944195e-03
         - -6.4499828356711008e-03
         - 5.7981711078004886e-03
         - -1.2954828499872866e-03
         - 1.5286741631060248e-03
         - -3.8823619185856398e-03
         - -1.0353250578110725e-03
         - 1.2910055874237452e-06
         - 6.3327309503246627e-03
         - 5.2838997417735368e-04
         - -9.1475648538949014e-03
         - 4.3402803728096479e-03
         - 3.1733389207839451e-03
         - -1.0938413909413060e-02
         - 2.5681850197544417e-03
         - 5.7285116475419319e-03
         - -1.1510190033654052e-02
         - -7.3505506009280998e-03
         - -2.0052472765957202e-03
         - -5.0754911061573283e-03
         - 1.3881672511701639e-02
         - -1.2158568869924806e-02
         - -2.6893764256813129e-03
         - -4.6137667948525432e-03
         - -1.7215247997533034e-03
         - -5.0222281189628995e-03
         - 6.9512631971457746e-03
         - 2.6669677635616641e-03
         - -5.6790172327781238e-03
         - 2.9745962355396268e-03
         - -6.2802413400219143e-04
         - -2.3787191613119539e-03
         - 5.7722100074581611e-04
         - 3.2123591997164917e-03
         - -7.1102103413062650e-03
         - -4.4455759517450917e-04
         - -1.3185763674988422e-03
         - -2.0832005654725957e-03
         - -6.0550770004260251e-05
         - -4.4554333082887998e-03
         - -1.6311025030393757e-03
         - -5.8257125979683209e-04
         - -2.0094534184348731e-03
         - -4.1943378969685067e-03
         - -2.4792489576422024e-03
         - -7.9674090624803277e-04
         - -5.7555711141360714e-03
         - -5.4014757590428409e-03
         - 2.3642815966136883e-03
         - 2.8136819295960934e-03
         - 2.4536622512724821e-03
         - 1.0615320781596584e-03
         - 4.6106904615068559e-03
         - 2.3204590342343176e-03
         - 2.6714223791521607e-03
         - 2.7589361994714038e-03
         - -1.8006512527299777e-03
         - 1.3780039231259288e-03
         - 2.3108776342811131e-03
         - -2.9486402343786374e-03
         - -1.0629685609039757e-03
         - 2.8202489051248844e-03
         - -2.6284296705610536e-03
         - 5.0944380468708889e-03
         - -9.8225516807662946e-04
         - 2.1827296122717181e-03
         - -8.4437260786400644e-04
         - -1.1257153251736627e-03
         - -1.0402556601664234e-03
         - -6.6800866278428229e-03
         - -1.7416561185494480e-04
         - -1.8840549222397729e-04
         - 4.8732373836889850e-03
         - -1.2434711380286960e-03
         - 2.3867474581977040e-03
         - -5.3462809872637596e-03
         - 1.2394742856953050e-03
         - 4.6424537126203945e-03
         - 4.7384025590477994e-03
         - -7.7188692609854621e-04
         - 2.7729007227426492e-03
         - -6.5879500538562673e-04
         - -1.5295362503901081e-03
         - 5.1685968470766323e-04
         - 1.1642504564352404e-03
         - -3.9797131057507425e-03
         - 2.6310819192432486e-04
         - -3.7228465057637328e-05
         - -3.9577632244226120e-03
         - 3.0300359643539230e-03
         - -1.7359956374097018e-03
         - 2.7616463509677032e-03
         - 1.3327650312472425e-03
         - -3.1306516667940781e-04
         - -3.5329547084666705e-04
         - 5.8744942787560775e-04
         - -3.5406663463249206e-03
         - 3.2004231537567135e-03
         - 3.1288704230250813e-03
         - -2.6677269453127860e-04
         - -2.3846253675201696e-04
         - -2.3363084703973869e-03
         - 1.8901644509840773e-03
         - 4.5934768835481871e-04
         - -2.2992130026879827e-03
         - 3.1683349134706555e-04
         - 8.6239329129625679e-04
         - 5.0952346751522992e-05
         - 4.7733592159442670e-04
         - -2.3287363187627810e-03
         - 2.2376669296873962e-03
         - -6.6367876748229847e-03
         - -1.4384201190643232e-03
         - -5.5755260718929104e-04
         - -1.4873750900449447e-04
         - -5.3777766316610918e-04
         - -1.4842618875731046e-03
         - 3.7426507211682754e-03
         - -1.0387179812239411e-03
         - 2.9616751471108239e-03
         - 2.4990350119113471e-03
         - -3.4136042968088078e-03
         - -3.4064263030294704e-04
         - -8.2064279318393553e-04
         - 4.4642178829973969e-03
         - 3.5894398772018917e-03
         - 4.7700879356485403e-04
         - 8.0632194880378124e-04
         - -5.5453601214598680e-04
         - -2.5258999543177185e-03
         - 4.3925169005672327e-03
         - 2.4693216173091869e-03
         - -6.6506870087796937e-04
         - -3.2360135567346521e-03
         - 4.8472405534435064e-03
         - -5.3953113519409528e-04
         - 3.0296108422599292e-03
         - 4.8740207410465617e-04
         - 2.8217900956902945e-03
         - -1.1240946854223417e-03
         - 1.5406616498733750e-03
         - 7.1496354244579704e-04
         - -6.2316070610278767e-04
         - -4.6301627525594854e-03
         - 1.3355977147918349e-04
         - -1.3155522864320799e-03
         - -8.9884825588838573e-04
         - -1.9561627611136812e-03
         - -3.1955686403201231e-03
         - -6.5730377771380691e-04
         - 5.4614696158924558e-04
         - -1.2186825177095285e-03
         - -2.1835090132469792e-03
         - -1.2643809663863833e-03
         - 9.0542419430306902e-04
         - -3.0286086287699648e-04
         - 5.0604937415128532e-04
         - 2.1172364828141153e-03
         - 2.9531845467318870e-03
         - 2.0139428724172477e-03
         - 3.8711845863207805e-04
         - 3.3861019187148228e-03
         - -1.9682093458131397e-03
         - -1.7656110937362198e-03
         - -4.9441275535752191e-03
         - -3.2628160339312094e-03
         - -3.2206258893103280e-03
         - 2.2247427043664428e-03
         - 1.9882471359098479e-03
         - 3.9631266439883354e-04
         - -1.2737849982573373e-03
         - 4.8709913188182468e-03
         - 4.4893633968157284e-04
         - -2.1135529479252321e-03
         - -1.3900743009965138e-03
         - 3.5780108095502358e-03
         - -2.0435492192873539e-03
         - 4.0378952240629441e-03
         - -1.1094084495089913e-03
         - 1.4633387752633055e-04
         - -1.7774841391545138e-03
         - -4.3180470009147364e-03
         - 1.0171843774988904e-03
         - -1.7410444506759696e-03
         - -7.9727802854383440e-04
         - 1.2250276767581394e-03
         - -3.3296999072092840e-03
         - -9.0035884516204861e-04
         - 1.2896742860901539e-03
         - 1.0878791766153963e-03
         - -2.3800130391697012e-03
         - 1.4802993984415411e-03
         - -1.5372824022843786e-03
         - 5.0428786184435149e-04
         - -3.6722184446629563e-03
         - -4.7740317320342680e-03
         - 2.5876732397235613e-03
         - -8.6358119855984650e-04
         - 1.8575509697227237e-03
         - 1.4753637837997009e-03
         - 1.3211639713885035e-03
         - 2.1350792994751845e-03
         - 3.3117276559800866e-03
         - -2.1055003126448967e-03
         - 5.3862435384020293e-03
         - 1.8746705543968617e-03
         - 1.9673857827605060e-03
         - -3.0777906205289207e-03
         - 5.5013319053922422e-04
         - -3.5954935369698036e-04
         - 3.4271743335051834e-03
         - -2.5391512155509208e-03
         - -1.8411442353596498e-03
         - 2.7048823846562977e-03
         - -2.2658702137270744e-03
         - 2.8222310726696226e-03
         - -9.0686133173483548e-06
         - 1.9471542282134848e-03
         - 3.0433424399647700e-03
         - -1.5254206471906988e-03
         - -2.5772090435139299e-03
         - -2.7130027144225060e-04
         - -1.0630536428747480e-03
         - -2.6930996531791007e-03
         - -6.9818127205172325e-04
         - 1.3589159120305499e-03
         - 2.1661668029417827e-03
         - -1.1001376056318046e-03
         - -3.9651062725531037e-03
         - 6.4093224161578780e-04
         - -1.3447461106368200e-03
         - 2.9186583816854647e-03
         - -4.2751464168844255e-04
         - 3.5862563005173726e-03
         - -1.5853319743840521e-03
         - 1.0052676858339606e-03
         - 3.1410385137572738e-03
         - 3.2615398439681722e-03
         - -1.2022110414656180e-03
         - 6.9270189504566974e-04
         - 2.0465399327767751e-03
         - 1.6939366048588912e-04
         - -4.6614400482226674e-03
         - 1.6197263562690008e-03
         - -1.6618519121378646e-03
         - 1.3688911667242515e-03
         - 2.0060036362662724e-03
         - 4.5509115076028013e-03
         - 3.1840215118600526e-03
         - -7.7609091383356427e-04
         - -6.5488671360656508e-03
         - -2.8879727068770070e-03
         - 3.2930324078069579e-03
         - -6.7182376172752432e-03
         - -2.5352971597653983e-04
         - -3.4494157337615862e-03
         - 1.4438726199696422e-03
         - -6.1508902997407461e-03
         - -2.3415862667502535e-03
         - -3.1933807029360483e-03
         - 2.3228252710240770e-03
         - 7.3084918907534522e-04
         - -2.7156044089142765e-03
         - 4.0644637589000582e-03
         - -1.0894247332314841e-03
         - -6.4945197982917303e-03
         - -4.1634884458639082e-03
         - 2.3104440698776961e-03
         - -1.1498903847874012e-02
         - -6.3044003667316710e-03
         - -2.1540196169363116e-03
         - -4.1521150001090114e-03
         - 1.0765193844768516e-03
         - -2.0638890994294254e-03
         - -2.0352601471689629e-03
         - -8.5772538846043619e-03
         - -6.6610671459920332e-03
         - -3.9696906141118895e-03
         - 1.8695594294675460e-03
         - 2.1795542855249888e-03
         - -2.1988822074849560e-03
         - 9.1773285444244155e-03
         - 4.2243851054370929e-03
         - -6.4453860434764629e-03
         - 1.3883794170934879e-04
         - 1.0681650865796697e-02
         - -9.5163318391720837e-03
         - -9.5916324773575590e-03
         - -4.0736591058968897e-03
         - -4.8040695090851267e-03
         - 7.5269808725163829e-03
         - -1.3580683520361280e-02
         - 7.1757124294594577e-04
         - -9.6300719663488851e-03
         - -5.5008463953059609e-03
         - 1.1893511362991789e-03
         - 1.1031918686900169e-02
         - -5.0097755539503051e-03
         - -6.4960977518342001e-03
         - 2.4561199879138910e-03
         - 7.5237660004749633e-03
         - -4.9388268967115682e-03
         - 6.5650625850281179e-03
         - 4.0438635574081994e-03
         - 1.0790176938853151e-03
         - -1.3155298794345061e-03
         - 2.9627392511107822e-03
         - -1.9752388332917176e-03
         - 3.2685014371636656e-03
         - 2.4540705719998399e-03
         - -2.8581305402848207e-03
         - -3.4781683150413123e-03
         - -2.0757361311017478e-03
         - -1.7995460257653837e-03
         - -1.8486058900819013e-03
         - -3.0524430018147321e-03
         - 4.2563018940063140e-03
         - 2.1012745437872368e-03
         - 6.8875417980260290e-04
         - 4.5948673471803243e-03
         - -1.5415368963504095e-03
         - -5.3699436213719030e-04
         - 2.9864687883502895e-03
         - 4.8578646321631074e-03
         - 4.3676333418527389e-03
         - -1.8629826471334167e-03
         - -9.2602599956554863e-04
         - 1.0223019421302594e-03
         - 2.2873376264501659e-04
         - 1.9433940103667936e-03
         - -1.2547908721853558e-03
         - -2.9059341807147725e-04
         - -3.4463396621996792e-04
         - 1.4973513672350686e-03
         - -1.9176886204547123e-04
         - -3.0968842191478646e-03
         - 6.8624867708423501e-04
         - 4.4214231592540594e-03
         - 1.2199707527564083e-03
         - 8.9367912448392491e-05
         - 1.5199096310352803e-02
         - 7.3069827803826076e-03
         - 2.5583240457281316e-03
         - 9.9980388234819435e-04
         - -1.3458277879727922e-02
         - 1.5602361872402992e-02
         - -2.6179197436282859e-03
         - 1.3144494260262514e-02
         - 8.8883496953819884e-03
         - -4.0754065710707168e-04
         - -1.1898847130946587e-02
         - -1.3733150554599753e-03
         - 8.8884435783148589e-03
         - 2.7375118293698443e-03
         - -8.7839824757904826e-03
         - 6.0018741861491334e-03
         - -1.0043182023545025e-02
         - -1.4290279025849884e-02
         - -9.7418155707844709e-03
         - 2.5907373342895033e-03
         - 4.3894836075907543e-04
         - -1.6198197809973920e-03
         - 2.7193113133639878e-04
         - 9.1973310772264193e-03
         - -3.6672687597325616e-03
         - -3.6384151875864653e-03
         - 2.2564847186667893e-03
         - 7.2390898801319892e-04
         - 2.0751758836382210e-04
         - 1.8090284380102429e-03
         - 3.0844571869302669e-03
         - -4.0227850106303925e-03
         - 5.2412855028385842e-04
         - 2.2469681986723050e-03
         - 3.4337644790427653e-03
         - -5.2374019793184959e-04
         - -5.7673452087606391e-03
         - -5.2343903346345746e-03
         - -2.1500053978074957e-03
         - -8.7906977052819406e-03
         - 3.2753185153064149e-03
         - 1.6720497378438339e-03
         - -5.8451921998228893e-04
         - 1.6025789038068257e-03
         - -2.4632079500919338e-03
         - 1.3145761590810253e-03
         - 7.3785321251382194e-03
         - -1.9586291833219999e-03
         - -7.2077841862275352e-03
         - -3.2851417597982435e-03
         - -9.5859548530751501e-04
         - -2.5521980129389744e-03
         - -3.0240337396681915e-03
         - -4.4109767095110446e-04
         - -3.8536755620888387e-04
         - -1.5952781286059751e-03
         - -5.9161131304743902e-04
         - 3.5456707094517727e-04
         - 3.8644932551322787e-03
         - 2.1412585528212853e-03
         - -2.9893164342811000e-04
         - -1.2391970749385190e-03
         - 3.1068150818240603e-03
         - 7.5714162147985978e-04
         - -4.3073572546180709e-03
         - -1.5005516225876864e-03
         - -2.5756407105298113e-03
         - 2.6172359311990149e-03
         - -7.2333309065058819e-06
         - 1.4896653837621226e-04
         - 2.2443882781170163e-03
         - -2.3463463703824123e-03
         - -3.7419884875356042e-03
         - 2.9196888065906296e-04
         - 8.1290587730913696e-04
         - 1.9019166231954759e-03
         - -4.3665320036649223e-04
         - -3.3817394977243244e-03
         - 1.5817678692797020e-03
         - 2.5716838887097407e-03
         - 2.2063007028712823e-04
         - 2.0401024244710601e-03
         - 4.5713506334387069e-03
         - -4.5697041377277213e-04
         - 2.2127973999169683e-04
         - -9.6352563501451093e-04
         - 1.0335062520448817e-03
         - -4.6600011303133742e-03
         - -1.0135492204279379e-03
         - 4.0744151982872283e-03
         - 3.9474261683531946e-03
         - 2.9731569098423124e-04
         - 5.5025833044091376e-04
         - 1.1218680693464279e-03
         - -3.5418409771846974e-03
         - -1.0766284510347883e-03
         - 5.7964979540572361e-04
         - 6.1817249777697545e-03
         - 3.1731231014651149e-03
         - -3.4191721086887987e-03
         - 2.2112185913492663e-04
         - 9.6497329151403366e-04
         - -5.6558073052265295e-03
         - -2.7051333924539019e-04
         - -3.5997396505366860e-03
         - 7.8371755653364438e-05
         - -6.1376287393539975e-04
         - 1.0527846746439540e-03
         - -1.0870106992556462e-03
         - -2.7081580299168160e-03
         - -1.0067194050561634e-03
         - 4.3274116997912414e-04
         - -1.8348146500919869e-03
         - -5.9443292886106737e-04
         - -1.2873541316509721e-03
         - -1.5975999623076519e-03
         - -2.5687762481610807e-03
         - -1.4622002637271875e-03
         - 1.0760125046510135e-04
         - -2.1813469967224873e-03
         - 5.0550807476387625e-03
         - 7.1948442425019796e-04
         - 6.4772002429531127e-04
         - 3.8995530460537867e-03
         - 5.4276858669636261e-04
         - -2.6558336185843827e-03
         - 4.5569722337552498e-03
         - -1.3938573475934571e-03
         - 3.8291750666031008e-03
         - -1.3744692385430426e-03
         - -2.9485370035733324e-03
         - -2.5765605264765689e-04
         - -4.5490606366144206e-03
         - 3.7713430293290526e-03
         - 1.4955556895789506e-03
         - 1.7415555763552334e-04
         - -2.3236569004883544e-03
         - 1.2452942331698579e-03
         - -1.3762871870684680e-03
         - -2.8857326788127901e-03
         - 6.8579526671713059e-04
         - 5.9220651501846262e-04
         - 9.7672053110289900e-04
         - -1.2567783491496680e-03
         - -2.7150248039670144e-03
         - -3.0279261234706506e-03
         - -3.5131694767614758e-03
         - 2.4163672096833631e-03
         - -1.9308874574034808e-03
         - 5.0622119052840843e-03
         - 2.8312057077120242e-04
         - -2.4391592982863398e-03
         - 3.2799323978604214e-03
         - -1.0006376381949901e-03
         - -4.4582569380282608e-03
         - 9.2425418253217254e-04
         - -1.5956313848874426e-03
         - -3.3646440340884569e-03
         - -9.4882864541862618e-04
         - -2.9606673378404641e-03
         - -1.5944639091391587e-03
         - 1.8103668653571784e-03
         - -1.5803044338838217e-03
         - 2.6180540342762870e-04
         - -1.5371467755913070e-03
         - -1.8084841217094231e-03
         - -3.0718473380991263e-03
         - 2.4292184026971855e-04
         - 8.7999415165141749e-04
         - -3.1823119030243169e-03
         - 5.7659208740259516e-04
         - 2.5446936955158895e-03
         - 4.6500616720112584e-04
         - -1.8532044788220144e-03
         - -3.5347266998257830e-03
         - -2.0142710839771848e-03
         - 8.5052962172521421e-04
         - 1.3369745632553442e-03
         - -4.0236499711943921e-04
         - -7.7012348599704854e-04
         - -3.8369358790794452e-03
         - -1.6532639693956092e-03
         - 2.0462592579373910e-03
         - 4.8091967295850599e-03
         - -1.2209850516196941e-03
         - 2.3726427796578351e-03
         - -1.3832426816168192e-03
         - -2.0469278033667312e-03
         - 1.1397613301795306e-03
         - -5.0488671526089931e-05
         - -3.0005110744809032e-04
         - -1.7883313628343409e-03
         - -9.9031616078173209e-04
         - -2.7273556119399764e-03
         - -9.3363546079097129e-04
         - -3.2117499381254838e-03
         - 2.8681623080821471e-03
         - -6.4449711861849616e-04
         - 2.3161502302453370e-03
         - -1.5235079313956686e-03
         - 6.1834769837858954e-04
         - -6.1180157283058107e-04
         - 2.7016046952452848e-03
         - 1.8645880238882719e-03
         - 2.6134507348035264e-03
         - 3.7438960911902007e-04
         - -4.7900718974423816e-04
         - -3.0043397937322270e-03
         - -3.7866761895593128e-03
         - -9.4510088719717189e-04
         - 1.8250707991672444e-03
         - -2.8085844053539824e-04
         - -1.0564593078779812e-03
         - -2.3567849771284092e-03
         - -4.3340622050697710e-04
         - -2.0417807086490995e-03
         - -1.9714210077677635e-03
         - -3.4678261108668476e-03
         - -3.0791969618480432e-03
         - 3.5383841466437059e-04
         - -2.9018041173806478e-03
         - -2.0224162480323065e-03
         - -4.6503782812160896e-03
         - 2.3562450431414456e-03
         - 4.3090183380078166e-03
         - 2.8060517708033248e-03
         - -3.0912907682343884e-03
         - 8.9016338614201444e-04
         - -2.2953416924130538e-03
         - 5.7991253449247440e-04
         - 1.9521162918326959e-03
         - -2.4532397625796776e-03
         - -1.5547574964519732e-03
         - 2.7178340108235125e-04
         - -2.6999531078065178e-03
         - 2.4417509507034495e-03
         - 5.0772754624452505e-03
         - -3.5325811471312524e-04
         - 1.0488732472752073e-03
         - 2.6850275775808629e-03
         - -3.5514964346752892e-03
         - -1.5113036281987941e-03
         - 4.5907191881339518e-04
         - 8.7302542783770592e-05
         - -4.5394767265717482e-04
         - -3.8967092785994811e-03
         - -3.1948068082467309e-03
         - -2.7924793003658802e-03
         - -1.0752485273953412e-03
         - 5.3397099489104133e-04
         - -1.2921182435210127e-03
         - -4.4600918599892077e-03
         - -3.4114021690886341e-04
         - -2.7257706766482164e-03
         - 6.3147155688253042e-04
         - 4.3331493409732424e-03
         - 1.5388098019276171e-03
         - -3.2995429793855422e-03
         - -5.2423919473655123e-04
         - -3.9325875147455660e-03
         - -2.5931970340330140e-03
         - 1.1920845275500155e-03
         - -5.9488691560732002e-03
         - 7.3309104311176896e-05
         - -2.6776537719545856e-03
         - -1.3506038639895710e-03
         - -1.8713369825276533e-03
         - -2.6269221961057127e-03
         - -3.9267858643529862e-03
         - -1.9612819835428605e-03
         - 5.9023208492355183e-05
         - -3.9470544572968924e-03
         - 1.9691689587501748e-04
         - -3.5463897058847131e-03
         - 2.8055121817726432e-04
         - 2.0980740053112967e-03
         - -1.0299454989279239e-03
         - -2.7802984669028923e-03
         - -3.6078578725400709e-03
         - 1.5949625421238245e-03
         - 1.4457614470432657e-03
         - 7.4018741364404361e-04
         - -3.3504273425994644e-03
         - -2.2968496052384376e-03
         - 4.3322960496122078e-03
         - -1.9201713120111181e-03
         - -1.3398357531278914e-03
         - -2.6589763241850170e-04
         - -3.9633643610559677e-03
         - 3.6307370884852627e-03
         - 1.7070942795398493e-03
         - 1.1651376935807422e-03
         - 3.2970170902926420e-03
         - -4.3690592166299369e-03
         - 3.3594896772458221e-03
         - 1.0702026891366116e-04
         - -4.0019272456603087e-03
         - -7.9177474214783404e-04
         - 1.4738140775988318e-03
         - 6.6285262336844303e-04
         - -3.9644527222120968e-03
         - 2.0012517959478223e-03
         - -2.5062747686848590e-03
         - 3.7733407674494856e-05
         - -2.0813458292568438e-03
         - 1.1115598392282890e-04
         - -6.6272325509722724e-04
         - -6.0090370106931053e-04
         - -6.8369628980334066e-05
         - -1.7411813497515121e-03
         - -2.0029806436311782e-04
         - -8.8590665232799633e-03
         - -2.2191930758251183e-03
         - -3.4222841032080184e-03
         - -8.0933495805836006e-04
         - -4.5745373408449808e-03
         - 6.8190695427903776e-04
         - 5.5453996783168420e-04
         - -3.4205266775827786e-03
         - 2.4379654218134343e-03
         - 5.6972678151093938e-03
         - -2.8100161135761279e-03
         - 8.9781007662183146e-04
         - -9.1891304948807850e-04
         - -2.4812138607530607e-04
         - -3.1872157524333537e-03
         - -7.9100192593587452e-05
         - -3.3902081467250267e-03
         - -2.5410420404848432e-03
         - 2.9404717478684659e-04
         - 3.5492565881470074e-03
         - -5.2709118852557130e-03
         - -1.5079616802627992e-03
         - -1.2692013820487857e-04
         - -9.6942366543761394e-04
         - -3.6331780428737635e-03
         - -2.7599893497012265e-04
         - -5.6119583566647852e-04
         - -7.7706984213273922e-04
         - 2.1424027905196786e-03
         - 2.8933733363517957e-03
         - -2.0787210359890056e-03
         - 2.8605592322102210e-04
         - 1.3974603521079805e-03
         - 6.8896970028542214e-03
         - 8.6908921211772581e-04
         - -1.0601184718865118e-02
         - 7.5453273056240097e-03
         - -1.0432573436240094e-03
         - 6.2468208432972291e-03
         - 4.0713221075429048e-03
         - -7.1048959830706505e-04
         - -7.0530008934118760e-03
         - -8.5552646190526329e-04
         - 4.2790575853853480e-03
         - 1.0701018774912105e-02
         - -3.3451461681453238e-03
         - 4.8044900384970184e-04
         - -5.2017237645502036e-03
         - -1.5304007475881357e-02
         - 3.6564175091455021e-03
         - 3.7126395745467442e-03
         - 1.0199046293875482e-03
         - -2.9217140019233113e-04
         - 2.8130042496557484e-04
         - 7.9282520104889719e-04
         - -8.3316995135133227e-04
         - 1.4214126561693779e-03
         - -1.6631826837424767e-03
         - -2.0069483393801222e-03
         - -4.0308665293670226e-03
         - 4.0709298076684264e-04
         - 3.3776334790841713e-03
         - -4.0843984328932625e-04
         - -2.2712529090163185e-03
         - 4.3502311966122295e-03
         - -2.9919087716814502e-03
         - -5.4424696206619412e-03
         - -1.3773389816288447e-04
         - -1.6645264466186513e-03
         - 5.2231363478652459e-03
         - -2.5609083952980115e-03
         - -2.5982518679484117e-03
         - 2.5867909129972692e-03
         - 2.7949148835632017e-03
         - 3.3252384273583947e-03
         - -9.1925735671368467e-04
         - 1.3941023065861169e-03
         - 1.9946548188377517e-03
         - -4.0216433097992575e-03
         - -4.5942597449912829e-03
         - -2.6006444639667917e-03
         - -4.6205541887753710e-03
         - 7.0521436589371421e-04
         - -2.4854279604613594e-03
         - -5.5140274786072713e-03
         - -1.4905882190120696e-04
         - -2.2110798080582491e-03
         - -3.4540284871973611e-03
         - -2.4981036936538468e-03
         - 1.6763096315759131e-03
         - 1.5559203217636337e-03
         - 2.8114194576116455e-03
         - 2.1006244892405666e-03
         - 5.4446821791389252e-03
         - -2.8304358416260966e-03
         - -1.1053465885175772e-03
         - 1.1008634485048657e-03
         - 4.0027067939802491e-04
         - 1.1242102114550712e-03
         - -5.2522524411941392e-03
         - 2.6248062105557551e-03
         - -9.1299324696116914e-04
         - -1.7260168565181914e-03
         - 1.6713379970156807e-03
         - 4.3169860114288111e-03
         - 4.0543243299818680e-03
         - 2.0188387911011362e-03
         - -5.4425906938644656e-03
         - 7.1488936239985721e-04
         - 6.7713360323813903e-04
         - -1.3016707903410166e-03
         - -1.8182045852425824e-03
         - -1.8707752300565603e-03
         - 1.5069152583579280e-05
         - -2.6727447550927543e-03
         - -8.9404930403939821e-04
         - 2.8719560021828370e-03
         - -4.5335205489218195e-03
         - 3.7309408648873066e-03
         - 2.3064822781921688e-03
         - 9.9551697634628258e-05
         - -3.4695953825154948e-03
         - -3.2140379418355560e-03
         - 2.2784103196419919e-03
         - -2.5818909054110602e-03
         - 3.0617520216633166e-03
         - 3.9281025640852838e-03
         - -9.6881203930781505e-05
         - 2.8500975388537279e-03
         - 2.0881028605430258e-03
         - 3.2033466096497722e-03
         - 6.5437540958631626e-04
         - 1.7537252618902591e-03
         - 8.2855022366455568e-04
         - -5.2790045066556919e-04
         - 1.6509251241995525e-04
         - 1.6379176280254279e-03
         - -7.9226046553275311e-04
         - -6.4447451053540759e-04
         - 2.9286024931271665e-03
         - -4.6356378931202919e-03
         - -1.3645217877858689e-03
         - -3.8475104308506544e-03
         - -2.4328390370466579e-03
         - -1.3009520524629842e-03
         - 3.8320252060170517e-03
         - -4.2745992506110507e-04
         - 2.3473725301659180e-03
         - 3.0904604663883391e-03
         - 4.2264752210063143e-03
         - -1.7935253797055912e-03
         - -4.1249707686246903e-03
         - -3.3186542333653122e-03
         - -2.1115313053237991e-03
         - -3.1601487962738058e-03
         - -3.0858471062335880e-03
         - -3.1217384757275392e-03
         - -8.6038784840092829e-04
         - -3.8602271183614117e-03
         - -1.8776577692033655e-03
         - -5.8088191671187830e-03
         - 1.2784885409115860e-04
         - 2.9945829012380009e-03
         - -1.9558556170293467e-03
         - 1.4814043549502309e-03
         - -3.8021797803545650e-03
         - -2.6538922465714002e-03
         - -1.8596579800221370e-03
         - 1.7387695434696122e-03
         - -3.1787257162823788e-03
         - -2.4849803816670204e-03
         - -8.9101686718797888e-04
         - -1.3343136503138416e-03
         - -2.3448012586347717e-03
         - -2.6307775414557686e-03
         - -1.4394350044573342e-03
         - -3.9912633075558885e-04
         - -8.7348399354767532e-04
         - -1.4041691948293188e-04
         - -3.4948209691332806e-03
         - -8.6335564262031168e-04
         - 2.8679013093701839e-03
         - -9.1074212911613464e-04
         - 4.2003116429409886e-03
         - -2.3180798403867795e-03
         - 5.4718783250562106e-04
         - -3.0911376381733044e-03
         - 1.0791058994889166e-03
         - 4.4564233623362054e-04
         - 8.9365432428669073e-04
         - 2.4390814266238384e-04
         - 1.9664821342129553e-03
         - 2.8220993863228042e-04
         - -1.6914182880647924e-03
         - 1.4213931939457206e-03
         - -4.2345540624997282e-03
         - -1.7514958331386937e-03
         - -3.0434454952762090e-03
         - -1.1066466992190349e-03
         - -4.9838847642241979e-03
         - 4.6535654915796044e-03
         - 3.8203028750443640e-03
         - -3.8797840009971015e-03
         - -5.0375029595050858e-03
         - 3.3147768635810445e-03
         - -5.6238655303782626e-03
         - -1.3198456302140934e-03
         - 1.4957476131345149e-04
         - -1.5541089949441924e-03
         - -3.7297912501351766e-03
         - -3.6801605100783546e-03
         - -2.8405953330720027e-03
         - -5.4025696303149750e-03
         - 3.3731888793331554e-03
         - -1.1625439687356607e-05
         - -7.0079967021128729e-04
         - 2.0365730411123456e-03
         - 5.0160552962347758e-04
         - 5.0904901873183707e-04
         - 3.1719634655699987e-03
         - 2.0105863100126475e-04
         - -2.9202160454586804e-03
         - 2.3273261735263823e-03
         - -3.8962469323724929e-03
         - -2.3478587457204658e-03
         - 1.9256827204111094e-04
         - -1.9214509374925262e-03
         - 3.7307014992690548e-03
         - 5.0208004979503344e-03
         - 6.5994863057602720e-04
         - -2.7920728807636318e-03
         - -3.2249149746826893e-03
         - -1.2613230668978971e-03
         - 2.0830799375307126e-03
         - -1.9855792771658175e-03
         - -4.3396597804443993e-03
         - -2.5407569957212714e-03
         - -2.6344375693058216e-03
         - -3.0690500267482601e-03
         - 7.2609729339460710e-04
         - -3.3669202276129309e-03
         - 5.8396827030138233e-04
         - -2.6218950627335171e-03
         - 2.9102516384429365e-03
         - -2.8479949279916947e-03
         - -4.3426706112405025e-03
         - -1.4934262455379519e-03
         - -2.0292487976221935e-03
         - -2.1651738553067840e-03
         - -3.4641076756569281e-03
         - -3.2369438754422859e-03
         - 9.6297378943964213e-04
         - 4.6270445847523210e-04
         - 3.2028935105270552e-05
         - -1.5022063271220368e-03
         - 3.2794464332312604e-03
         - 3.3349410423014459e-03
         - 1.7263766676956340e-03
         - -2.2357386935024110e-03
         - 2.0314095211800146e-03
         - 6.1846250601397318e-03
         - -1.0425880262326861e-03
         - 1.5871885714858933e-03
         - 1.4446168192202413e-03
         - 5.0886498408169748e-03
         - -9.1731158885596288e-04
         - -2.3989831451469586e-03
         - -1.9750266688966199e-03
         - -1.9039606351657320e-03
         - 7.4620932348989065e-04
         - 2.1642772952188668e-03
         - 4.2297600760505963e-03
         - -2.1917515730308637e-03
         - 2.6734459175883985e-03
         - 1.2265180668426304e-03
         - -4.8203790543186664e-03
         - -1.3597265886960649e-03
         - -3.3958534956265033e-03
         - 1.4881787200466182e-03
         - -3.2684537933349938e-03
         - 2.6032737557327265e-03
         - 5.9965974945522390e-04
         - -3.4841879992000115e-03
         - -2.8423429789649398e-03
         - -1.4535812772480015e-03
         - -2.8319401408915341e-04
         - 1.4200308457954882e-03
         - 2.1975522473191605e-05
         - -1.4898681147655927e-03
         - 1.0152085220695424e-03
         - -3.4586164011159936e-03
         - -3.7929540863578235e-03
         - 1.5222812369547593e-03
         - -3.0229047043227836e-03
         - 4.8979410852347568e-04
         - -3.2729242353731055e-03
         - -3.9438790083250507e-03
         - -3.0408560996930244e-03
         - -3.5657699200206062e-04
         - 1.2050988778080543e-03
         - 2.8430710750647452e-03
         - -9.4904386246033058e-04
         - 3.0383253663816973e-03
         - -1.6201467598331160e-03
         - 9.4224007910259617e-05
         - 3.2930852387371809e-03
         - 3.4627495977800249e-03
         - 8.3330943472460870e-04
         - 4.4413405684018562e-03
         - 3.6778125667566125e-03
         - -2.8515067216782382e-03
         - 1.1191039157326976e-03
         - 1.4881218447686069e-03
         - 1.2996629518566194e-03
         - 1.4710105012072962e-03
         - 2.2468826181461033e-03
         - -1.6665208469074076e-03
         - 2.4485363733013099e-03
         - 2.2804129024603394e-03
         - -1.6237334261363259e-03
         - 1.1343289127817417e-03
         - -2.6290801155555692e-03
         - 1.7049446847281599e-03
         - 5.8888176813229440e-04
         - -2.8758510960474365e-03
         - -5.0787788962586792e-03
         - 1.9226750280854606e-03
         - -4.2119815798434355e-03
         - -1.1079384067076549e-03
         - 1.5934784481362393e-04
         - 1.6220440271465333e-03
         - 1.7421549168785925e-03
         - -1.2708977864816996e-03
         - -6.6243912989386792e-04
         - 2.1755999517678835e-03
         - -2.6265770426668945e-03
         - 6.7496291200145697e-04
         - 4.3171208607932334e-03
         - 6.4340894267871070e-03
         - 2.0717833994247162e-03
         - 1.1891720350115747e-04
         - -1.3703247760137190e-03
         - -8.9120850563999482e-04
         - 3.9709101791283990e-03
         - -2.4425395922060326e-03
         - 3.1098335606087762e-03
         - 3.1365005821261233e-03
         - 1.3455613454392814e-04
         - 2.0478773231215326e-03
         - -8.4708809582040659e-04
         - 1.2432731413782032e-03
         - 1.2407344206779450e-03
         - 2.0027744687048893e-03
         - 2.1479461199935598e-03
         - -9.9384130094408592e-04
         - 4.2705208756720859e-03
         - -3.1713421610015122e-03
         - -1.3945909661328363e-03
         - -1.5793408510940091e-03
         - 1.8680473279436966e-03
         - 2.2329156593109654e-03
         - -3.7678167652905152e-03
         - 4.3157782014217151e-04
         - 3.7017757411158316e-04
         - -6.8671665567662053e-05
         - -1.0264704250653334e-03
         - -1.2516414247106553e-04
         - 6.5772643820553617e-04
         - 1.1791982053208120e-03
         - 1.7076726101451049e-03
         - -8.9910551235525526e-05
         - 7.8116417743965335e-04
         - 1.2849958406828095e-03
         - 1.2599283116700663e-03
         - -2.5222126488399486e-03
         - -2.5739693005870991e-04
         - -2.7220934815529244e-03
         - -2.0845739806685490e-04
         - -2.7597170211208681e-03
         - -2.5176036506867729e-03
         - -2.4261778304041160e-03
         - 1.7348271761193021e-03
         - -2.6064903639701925e-03
         - 1.3409832085924120e-03
         - -4.8779361408466870e-03
         - 3.0860044057350188e-03
         - 1.1076647431929915e-03
         - 2.2578464264550284e-03
         - -2.1917875303223938e-03
         - -2.6420683402667770e-03
         - -5.9201065183207878e-03
         - 9.8823121366702401e-03
         - -1.1148357137346599e-02
         - 2.7662386482280349e-03
         - -3.7667718995105254e-03
         - 1.4353321211706290e-02
         - -1.0064176918015769e-02
         - 2.7385444943440807e-03
         - -9.9701111203303987e-03
         - -2.0596394833602974e-03
         - -1.3448514214976189e-03
         - 1.2740731689985822e-02
         - -3.6577949620761107e-04
         - -7.1777852659711868e-03
         - 8.2231141768473212e-04
         - 1.3998228010293396e-02
         - -9.3461772541835689e-03
         - -1.5150366934349355e-03
         - -7.2493271092600314e-04
         - 4.2326382054861814e-03
         - -9.8501723716110708e-03
         - 4.1729407520143908e-03
         - -1.1146247621788717e-02
         - 1.7512558734219086e-02
         - -1.3331078505498408e-02
         - 4.7115800308466039e-03
         - -1.0307080529675095e-02
         - -6.2528818134254581e-03
         - -1.4979390450023864e-03
         - 2.0025893163859974e-02
         - -6.2572420179232333e-05
         - -3.6394257648285975e-03
         - 9.8653566494304474e-03
         - 1.3538345330091205e-02
         - -1.6092534113208840e-02
         - 1.2294345936750481e-03
         - 1.2036165133151736e-03
         - 1.9313088462972710e-03
         - -3.8168579502195319e-03
         - 1.8129675217845717e-04
         - -4.6233088978497178e-03
         - 5.7551332817544682e-04
         - -9.0192608429660558e-03
         - -2.3897642316259744e-03
         - -1.7682973296453566e-03
         - -1.9230350281019234e-03
         - -5.4751266889138724e-03
         - 4.1120045807035736e-03
         - 1.6109371508696226e-03
         - 1.2300872460832741e-03
         - 1.8714887820136920e-03
         - 9.0905021712125948e-03
         - -5.1784004775529482e-03
         - 9.7690534462398134e-05
         - -2.4608186791852103e-03
         - 4.1676062434537085e-03
         - -3.7234764365316595e-04
         - -6.8374329436750303e-04
         - -5.1495259076415900e-04
         - -3.3136291803660916e-03
         - 1.1579656421483564e-03
         - 8.7717841131256972e-05
         - -2.7978631619054758e-03
         - 2.2196791956324386e-03
         - -3.8075680813682596e-04
         - -5.1930713607702328e-03
         - 2.4903508326071513e-03
         - 3.0910041734567368e-04
         - -1.2307914458598097e-04
         - 4.1057598154603889e-03
         - -2.8403150090041524e-04
         - 3.3168707795390509e-03
         - -1.6227808559270145e-03
         - -7.4744592432258734e-04
         - 1.8932871950812322e-03
         - -1.5912410995190438e-03
         - -4.7314562724836062e-03
         - -2.7950665038987709e-03
         - -4.4498581835261041e-03
         - -9.0694419885819643e-04
         - -2.3829257565993948e-03
         - 2.3647823833549157e-03
         - -6.2351256820221770e-04
         - -2.4487429216371432e-03
         - -2.2717071925065693e-03
         - -1.8161525630757964e-03
         - -2.5779483222110457e-03
         - 2.1636361168064053e-03
         - 1.4220741531444524e-03
         - 1.0588514574836833e-03
         - -2.9949777939687026e-03
         - -3.5787375606345525e-03
         - 3.8082168404079265e-03
         - -4.5951526514766499e-05
         - -1.4179059342264530e-03
         - -2.0543509544473366e-03
         - -2.5165501643190690e-03
         - 1.0397404983163215e-03
         - -2.4586830072784813e-03
         - 2.1535018904161318e-04
         - -4.7511011359410591e-05
         - -6.6762149423059197e-04
         - -2.2075075903473318e-03
         - -1.9845125168634643e-03
         - 3.1604760040556852e-03
         - -4.6080892275535863e-03
         - 2.2645987655277953e-03
         - 2.8723958112269214e-03
         - -2.8404045118121907e-03
         - -3.0751920695948147e-04
         - -3.1064688835403375e-03
         - 3.7824605295785894e-03
         - -1.6036978450580561e-03
         - 5.8412257750101442e-04
         - 2.4300643309366930e-03
         - 2.5687677583395108e-04
         - 2.2487133972761558e-03
         - 4.7944858506603922e-03
         - -3.0602106049575713e-03
         - 2.9008402272200974e-04
         - -3.7082940804950720e-03
         - -1.8984208766474832e-03
         - 2.2436109370419233e-03
         - 3.0670562464814479e-04
         - 6.1845062272432652e-04
         - 6.7142397427942080e-04
         - 3.5836471408704079e-03
         - 1.2321999059142453e-03
         - 4.0961220784760397e-03
         - -6.2648395964761132e-04
         - 2.1712112653968240e-03
         - -3.0241779549694233e-03
         - -5.5265937868388118e-03
         - 2.9856068091446081e-03
         - -1.6559353901939410e-03
         - 3.6208276325021705e-03
         - 4.2926599860548557e-03
         - -1.6276150890991053e-04
         - 3.1183560983402696e-03
         - -3.4568017235036379e-03
         - 3.1885790326162617e-03
         - -1.5286872414487734e-03
         - 4.0963056988932572e-03
         - 2.1258859447008571e-03
         - -2.4353842027981538e-03
         - 4.6977166758668278e-04
         - 3.0922251646459033e-03
         - -1.1288546158554789e-03
         - 2.6078623627628981e-04
         - 4.1412294048909443e-03
         - 3.5090750816785444e-04
         - 2.6546662237721488e-03
         - -2.6622484860113894e-03
         - 1.2253987978183283e-03
         - -9.2993574778720434e-04
         - -1.9740345322713927e-03
         - 4.4039344422487455e-05
         - -2.2239252014481037e-03
         - -2.3746782026572177e-03
         - 3.6172469635001544e-03
         - -4.0384019609124100e-03
         - 2.1219126216838742e-03
         - 3.6205958975882259e-03
         - 9.3746857003566158e-04
         - 3.0543507998702919e-03
         - 3.0983607215977543e-05
         - 3.1585132075941111e-03
         - -2.2199563118353882e-03
         - -1.6755408701119375e-03
         - 2.5194947263213682e-03
         - 3.6087642839250922e-03
         - -1.1863931522453064e-03
         - -9.5373316283098856e-05
         - 1.7123894385922198e-03
         - 2.7233782362720890e-03
         - 3.9143529412951437e-03
         - 4.7209438638233877e-04
         - -1.3482247617408591e-03
         - 3.5702870125798847e-03
         - -2.1352710079388499e-03
         - 5.3432382226388032e-04
         - 7.0317985153189953e-04
         - 3.1565447796815453e-03
         - -2.5986191597229128e-03
         - -3.2689689117845261e-03
         - 2.1554399933451799e-03
         - 3.4870721677939336e-03
         - -8.5782213231848912e-04
         - -2.1547062061160298e-03
         - -7.3871787709561831e-04
         - -3.9605095545823064e-03
         - 5.2392233938342101e-04
         - -1.5488730659747323e-03
         - -2.2452644853651008e-03
         - -1.4396385527264043e-04
         - 1.0704422673389697e-04
         - -2.2601864870916985e-03
         - 7.4988355578254695e-04
         - -3.1387844904910735e-03
         - 2.4528327520140143e-03
         - 1.6840344256780449e-03
         - 5.4836678380679421e-04
         - -1.9098348892350805e-03
         - -2.3086355697900180e-03
         - -4.2575124178656455e-03
         - 3.6917512141351042e-03
         - -3.2256823758918223e-04
         - 4.4613290683981777e-03
         - 2.1428381854595321e-03
         - 8.0154331018359934e-04
         - -3.8997827002997248e-04
         - -2.2073399239886215e-04
         - -3.1582784021051782e-03
         - 2.1811611562716515e-04
         - 2.2419175693408739e-03
         - -1.9963729212072252e-03
         - 1.0411190182533280e-03
         - -6.7750369217593190e-04
         - -3.8258673784466505e-03
         - 7.7203975889987466e-04
         - -1.8065786388451171e-03
         - -1.0359785874707514e-03
         - 1.5407712824086974e-03
         - -2.3799319281563396e-03
         - 1.8215120495999556e-03
         - -4.2093200298144416e-03
         - -1.9366434367793703e-03
         - 2.4670428287532609e-03
         - -7.8050586468306335e-04
         - 3.3678293434881539e-03
         - -6.8102728675961167e-04
         - -4.0881424445949046e-03
         - 9.5450528396410074e-04
         - -1.5989542580436959e-03
         - 5.5016199611920510e-04
         - 4.8639769899336627e-03
         - -1.5671391628918761e-03
         - -3.4188470931380915e-03
         - 1.2826911627001067e-03
         - 2.1773956820158053e-03
         - 3.7011647991898612e-05
         - 3.0492007030170432e-03
         - 3.5733202439448674e-03
         - 1.7149012969931943e-05
         - -3.9364124952990094e-04
         - 6.7285073478248725e-04
         - -2.8451576481110211e-03
         - 4.6347396574392625e-03
         - -1.6938475233132602e-03
         - 2.7291718468782757e-03
         - -2.7769268104143076e-03
         - -2.6497876785141487e-03
         - -5.4579604575190699e-03
         - 1.2559691616496173e-03
         - 4.3892673165223540e-03
         - 2.9691065759152239e-03
         - 1.5505192710060527e-03
         - -1.0440422935220797e-03
         - 1.1237480170762616e-03
         - -2.4721003188746303e-03
         - -5.0814037950976821e-03
         - -2.7371214950802972e-04
         - -1.4968631525707070e-04
         - -9.2948791337769791e-04
         - -1.3608460832835554e-03
         - 1.5567325172341584e-03
         - 3.1018228371598295e-03
         - 3.1198253773114825e-03
         - 8.5834516063151771e-05
         - 1.4037515680515359e-03
         - 2.4752389098755111e-03
         - -1.4856227470696846e-03
         - -2.4546839369449457e-03
         - 2.3682035214012496e-03
         - 4.7295219633501320e-04
         - 5.4756476937155936e-04
         - -3.2741900417376552e-03
         - -6.9280761210903529e-05
         - -4.3757082341226499e-03
         - 2.5879393862503000e-03
         - -1.5500961599504827e-04
         - -4.6814434428387062e-03
         - -1.0216972701441566e-03
         - -3.5800799646930675e-03
         - 8.3547343248697244e-04
         - -3.2922496976917049e-03
         - 3.5879692493885826e-03
         - -3.6076047270172649e-03
         - -3.1826448668434517e-03
         - 3.0426523628376808e-03
         - 1.2316998247228574e-03
         - 3.0752698808832308e-03
         - -3.5269827062804544e-03
         - 7.8739348028864582e-04
         - -4.1927154750129592e-03
         - 6.6153401190463448e-04
         - 5.7627139513529760e-05
         - -4.4478045430764350e-03
         - -2.3722572141597763e-03
         - 2.2774221809843155e-03
         - 2.4412698305398897e-03
         - 4.2172343871723153e-03
         - -3.4754217122983356e-03
         - 2.5267862411020264e-03
         - -2.9202490158870926e-03
         - -5.5141034457715751e-04
         - -2.6152887419144018e-03
         - 6.9848246632383930e-04
         - 1.6639366321335070e-04
         - -1.1215647946514640e-03
         - 1.1975833771784728e-03
         - 3.1400943515123196e-03
         - 2.1876580815914271e-03
         - 2.9682846586164334e-03
         - -2.2792623619472588e-03
         - 3.6196081050281700e-03
         - 1.2224566727591766e-05
         - -8.5458559079098020e-04
         - -4.1730177920376700e-03
         - -3.8330805118726884e-04
         - 1.7887528669510556e-04
         - -1.1799654538244151e-05
         - -2.9141866897127201e-03
         - 1.0576360703153050e-03
         - 2.7243723313483603e-04
         - -6.8029993782834286e-03
         - 4.1226725962743328e-04
         - -2.1514784314523301e-03
         - 2.0111850686966729e-03
         - -3.9544269162879713e-03
         - -3.1683006742082619e-03
         - 9.6969744035103683e-04
         - 2.7229632022208084e-03
         - 9.3245775156438585e-04
         - 2.6661206655594918e-04
         - -4.9961979045326304e-04
         - 1.4245278234471396e-03
         - 1.6707088098975246e-03
         - -1.5013841448613323e-03
         - -4.3084469275983490e-04
         - 1.3229654287686852e-04
         - -3.2617420233927124e-03
         - 1.2471764120448616e-03
         - 4.0280258421573206e-03
         - -1.3163489322772089e-03
         - 2.8703309844877872e-03
         - -4.8126048405961163e-04
         - 1.5379172323786699e-03
         - 3.8306175347239185e-03
         - 3.4888322070909480e-03
         - -6.7115692923025720e-04
         - 3.7715695510051697e-03
         - 1.6879890054945445e-03
         - -2.4837001325695540e-03
         - -2.1980354302118146e-03
         - -2.2249374563287658e-03
         - 2.8428533379265576e-03
         - -1.7809084500194042e-03
         - -8.8099220329528905e-06
         - 2.8649517775780550e-03
         - 1.6759879005655109e-03
         - 7.3422601033827630e-03
         - -9.7825823110072475e-03
         - -1.0664640594385709e-03
         - -8.6001641326731489e-03
         - 8.2328606855750480e-03
         - -1.0762241322328525e-02
         - 4.7345319588961033e-03
         - -1.0394698102938200e-02
         - -2.9288876404910008e-03
         - -4.2349484875793081e-04
         - 1.6955385634770195e-02
         - 5.7551513464908412e-03
